<?xml version="1.0"?>
<opencv_storage>
<myhaar type_id="opencv-haar-classifier">
  <size>
    20 20</size>
  <stages>
    <_>
      <trees>
        <_>
          <_>
            <feature>
              <rects>
                <_>
                  0 4 20 6 -1.</_>
                <_>
                  0 7 20 3 2.</_></rects>
              <tilted>0</tilted></feature>
            <threshold>0.0420896187424660</threshold>
            <left_val>-0.7851151227951050</left_val>
            <right_val>0.6863452792167664</right_val></_></_>
        <_>
          <_>
            <feature>
              <rects>
                <_>
                  0 16 20 2 -1.</_>
                <_>
                  5 16 10 2 2.</_></rects>
              <tilted>0</tilted></feature>
            <threshold>-0.0287156905978918</threshold>
            <left_val>0.5492501854896545</left_val>
            <right_val>-0.3852184116840363</right_val></_></_>
        <_>
          <_>
            <feature>
              <rects>
                <_>
                  5 2 10 10 -1.</_>
                <_>
                  5 7 10 5 2.</_></rects>
              <tilted>0</tilted></feature>
            <threshold>3.9306491089519113e-005</threshold>
            <left_val>-0.5903760194778442</left_val>
            <right_val>0.2812179028987885</right_val></_></_>
        <_>
          <_>
            <feature>
              <rects>
                <_>
                  10 0 10 1 -1.</_>
                <_>
                  10 0 5 1 2.</_></rects>
              <tilted>0</tilted></feature>
            <threshold>6.8452870473265648e-003</threshold>
            <left_val>-0.3108857870101929</left_val>
            <right_val>0.4342105090618134</right_val></_></_>
        <_>
          <_>
            <feature>
              <rects>
                <_>
                  0 0 10 3 -1.</_>
                <_>
                  5 0 5 3 2.</_></rects>
              <tilted>0</tilted></feature>
            <threshold>0.0284668505191803</threshold>
            <left_val>-0.2747167944908142</left_val>
            <right_val>0.6146590709686279</right_val></_></_>
        <_>
          <_>
            <feature>
              <rects>
                <_>
                  8 2 12 5 -1.</_>
                <_>
                  11 2 6 5 2.</_></rects>
              <tilted>0</tilted></feature>
            <threshold>-0.0362577699124813</threshold>
            <left_val>0.5494862198829651</left_val>
            <right_val>-0.1911786943674088</right_val></_></_>
        <_>
          <_>
            <feature>
              <rects>
                <_>
                  0 2 12 5 -1.</_>
                <_>
                  3 2 6 5 2.</_></rects>
              <tilted>0</tilted></feature>
            <threshold>-0.0357407703995705</threshold>
            <left_val>0.6600012183189392</left_val>
            <right_val>-0.2540816962718964</right_val></_></_>
        <_>
          <_>
            <feature>
              <rects>
                <_>
                  9 8 7 12 -1.</_>
                <_>
                  9 14 7 6 2.</_></rects>
              <tilted>0</tilted></feature>
            <threshold>-3.6016249214299023e-004</threshold>
            <left_val>0.1960898935794830</left_val>
            <right_val>-0.3578180074691773</right_val></_></_>
        <_>
          <_>
            <feature>
              <rects>
                <_>
                  0 12 2 3 -1.</_>
                <_>
                  0 13 2 1 3.</_></rects>
              <tilted>0</tilted></feature>
            <threshold>-1.6675409860908985e-003</threshold>
            <left_val>-0.5990359783172607</left_val>
            <right_val>0.1260582953691483</right_val></_></_></trees>
      <stage_threshold>-1.9874570369720459</stage_threshold>
      <parent>-1</parent>
      <next>-1</next></_>
    <_>
      <trees>
        <_>
          <_>
            <feature>
              <rects>
                <_>
                  0 4 20 6 -1.</_>
                <_>
                  0 7 20 3 2.</_></rects>
              <tilted>0</tilted></feature>
            <threshold>0.0759375393390656</threshold>
            <left_val>-0.6144484281539917</left_val>
            <right_val>0.6038327813148499</right_val></_></_>
        <_>
          <_>
            <feature>
              <rects>
                <_>
                  0 14 20 4 -1.</_>
                <_>
                  5 14 10 4 2.</_></rects>
              <tilted>0</tilted></feature>
            <threshold>-0.0494616404175758</threshold>
            <left_val>0.4667870104312897</left_val>
            <right_val>-0.3335681855678558</right_val></_></_>
        <_>
          <_>
            <feature>
              <rects>
                <_>
                  4 2 11 15 -1.</_>
                <_>
                  4 7 11 5 3.</_></rects>
              <tilted>0</tilted></feature>
            <threshold>0.0491348095238209</threshold>
            <left_val>-0.4996188879013062</left_val>
            <right_val>0.2423793971538544</right_val></_></_>
        <_>
          <_>
            <feature>
              <rects>
                <_>
                  0 0 20 2 -1.</_>
                <_>
                  5 0 10 2 2.</_></rects>
              <tilted>0</tilted></feature>
            <threshold>0.0358829498291016</threshold>
            <left_val>-0.2198646068572998</left_val>
            <right_val>0.4757527112960815</right_val></_></_>
        <_>
          <_>
            <feature>
              <rects>
                <_>
                  0 1 6 12 -1.</_>
                <_>
                  3 1 3 12 2.</_></rects>
              <tilted>0</tilted></feature>
            <threshold>-0.0735288709402084</threshold>
            <left_val>0.5567095279693604</left_val>
            <right_val>-0.1936133950948715</right_val></_></_>
        <_>
          <_>
            <feature>
              <rects>
                <_>
                  18 13 2 3 -1.</_>
                <_>
                  18 14 2 1 3.</_></rects>
              <tilted>0</tilted></feature>
            <threshold>-1.8652989529073238e-003</threshold>
            <left_val>-0.5670514702796936</left_val>
            <right_val>0.1421238034963608</right_val></_></_>
        <_>
          <_>
            <feature>
              <rects>
                <_>
                  3 0 14 4 -1.</_>
                <_>
                  3 2 14 2 2.</_></rects>
              <tilted>0</tilted></feature>
            <threshold>-0.0641795694828033</threshold>
            <left_val>0.5707789063453674</left_val>
            <right_val>-0.1416355967521668</right_val></_></_>
        <_>
          <_>
            <feature>
              <rects>
                <_>
                  19 0 1 6 -1.</_>
                <_>
                  19 3 1 3 2.</_></rects>
              <tilted>0</tilted></feature>
            <threshold>-1.2200470082461834e-003</threshold>
            <left_val>-0.3787792026996613</left_val>
            <right_val>0.1837946027517319</right_val></_></_>
        <_>
          <_>
            <feature>
              <rects>
                <_>
                  0 0 1 2 -1.</_>
                <_>
                  0 1 1 1 2.</_></rects>
              <tilted>0</tilted></feature>
            <threshold>-9.3949731672182679e-004</threshold>
            <left_val>-0.6380506157875061</left_val>
            <right_val>0.0925334468483925</right_val></_></_>
        <_>
          <_>
            <feature>
              <rects>
                <_>
                  11 13 1 6 -1.</_>
                <_>
                  11 16 1 3 2.</_></rects>
              <tilted>0</tilted></feature>
            <threshold>-7.7726249583065510e-004</threshold>
            <left_val>0.1827954947948456</left_val>
            <right_val>-0.2787269055843353</right_val></_></_>
        <_>
          <_>
            <feature>
              <rects>
                <_>
                  0 0 4 19 -1.</_>
                <_>
                  2 0 2 19 2.</_></rects>
              <tilted>0</tilted></feature>
            <threshold>0.0352680794894695</threshold>
            <left_val>-0.1363476961851120</left_val>
            <right_val>0.4731217026710510</right_val></_></_>
        <_>
          <_>
            <feature>
              <rects>
                <_>
                  18 13 2 3 -1.</_>
                <_>
                  18 14 2 1 3.</_></rects>
              <tilted>0</tilted></feature>
            <threshold>1.5928880311548710e-003</threshold>
            <left_val>0.1443134993314743</left_val>
            <right_val>-0.5074747204780579</right_val></_></_>
        <_>
          <_>
            <feature>
              <rects>
                <_>
                  0 13 2 3 -1.</_>
                <_>
                  0 14 2 1 3.</_></rects>
              <tilted>0</tilted></feature>
            <threshold>-1.9066040404140949e-003</threshold>
            <left_val>-0.5541254281997681</left_val>
            <right_val>0.1068765968084335</right_val></_></_>
        <_>
          <_>
            <feature>
              <rects>
                <_>
                  18 13 2 3 -1.</_>
                <_>
                  18 14 2 1 3.</_></rects>
              <tilted>0</tilted></feature>
            <threshold>-6.8306638859212399e-003</threshold>
            <left_val>-0.6212121248245239</left_val>
            <right_val>7.4410680681467056e-003</right_val></_></_>
        <_>
          <_>
            <feature>
              <rects>
                <_>
                  0 13 2 3 -1.</_>
                <_>
                  0 14 2 1 3.</_></rects>
              <tilted>0</tilted></feature>
            <threshold>1.7518519889563322e-003</threshold>
            <left_val>0.1285935938358307</left_val>
            <right_val>-0.5569838881492615</right_val></_></_>
        <_>
          <_>
            <feature>
              <rects>
                <_>
                  0 3 20 8 -1.</_>
                <_>
                  0 7 20 4 2.</_></rects>
              <tilted>0</tilted></feature>
            <threshold>0.0116472803056240</threshold>
            <left_val>-0.4401077032089233</left_val>
            <right_val>0.1259552985429764</right_val></_></_>
        <_>
          <_>
            <feature>
              <rects>
                <_>
                  0 0 6 8 -1.</_>
                <_>
                  0 0 3 4 2.</_>
                <_>
                  3 4 3 4 2.</_></rects>
              <tilted>0</tilted></feature>
            <threshold>-0.0134050101041794</threshold>
            <left_val>0.3015724122524262</left_val>
            <right_val>-0.1823692023754120</right_val></_></_>
        <_>
          <_>
            <feature>
              <rects>
                <_>
                  10 18 3 2 -1.</_>
                <_>
                  11 18 1 2 3.</_></rects>
              <tilted>0</tilted></feature>
            <threshold>2.0605609752237797e-003</threshold>
            <left_val>0.0830906331539154</left_val>
            <right_val>-0.5913807749748230</right_val></_></_>
        <_>
          <_>
            <feature>
              <rects>
                <_>
                  3 2 11 16 -1.</_>
                <_>
                  3 10 11 8 2.</_></rects>
              <tilted>0</tilted></feature>
            <threshold>0.2223742008209229</threshold>
            <left_val>0.0780241712927818</left_val>
            <right_val>-0.6510998010635376</right_val></_></_>
        <_>
          <_>
            <feature>
              <rects>
                <_>
                  11 14 2 4 -1.</_>
                <_>
                  11 14 1 4 2.</_></rects>
              <tilted>1</tilted></feature>
            <threshold>0.0189193207770586</threshold>
            <left_val>0.0112115703523159</left_val>
            <right_val>-0.6065316796302795</right_val></_></_>
        <_>
          <_>
            <feature>
              <rects>
                <_>
                  7 18 4 2 -1.</_>
                <_>
                  8 18 2 2 2.</_></rects>
              <tilted>0</tilted></feature>
            <threshold>3.4785750322043896e-003</threshold>
            <left_val>0.0821203216910362</left_val>
            <right_val>-0.6494786143302918</right_val></_></_></trees>
      <stage_threshold>-1.7380340099334717</stage_threshold>
      <parent>0</parent>
      <next>-1</next></_>
    <_>
      <trees>
        <_>
          <_>
            <feature>
              <rects>
                <_>
                  4 5 11 4 -1.</_>
                <_>
                  4 7 11 2 2.</_></rects>
              <tilted>0</tilted></feature>
            <threshold>0.0203549005091190</threshold>
            <left_val>-0.5602220296859741</left_val>
            <right_val>0.3533627092838287</right_val></_></_>
        <_>
          <_>
            <feature>
              <rects>
                <_>
                  0 16 20 2 -1.</_>
                <_>
                  5 16 10 2 2.</_></rects>
              <tilted>0</tilted></feature>
            <threshold>-0.0446538403630257</threshold>
            <left_val>0.5823308825492859</left_val>
            <right_val>-0.2836143076419830</right_val></_></_>
        <_>
          <_>
            <feature>
              <rects>
                <_>
                  4 1 12 6 -1.</_>
                <_>
                  8 1 4 6 3.</_></rects>
              <tilted>0</tilted></feature>
            <threshold>0.0829432383179665</threshold>
            <left_val>-0.2026274055242539</left_val>
            <right_val>0.6985076069831848</right_val></_></_>
        <_>
          <_>
            <feature>
              <rects>
                <_>
                  12 0 8 1 -1.</_>
                <_>
                  12 0 4 1 2.</_></rects>
              <tilted>0</tilted></feature>
            <threshold>5.6051719002425671e-003</threshold>
            <left_val>-0.2322904020547867</left_val>
            <right_val>0.4065696001052856</right_val></_></_>
        <_>
          <_>
            <feature>
              <rects>
                <_>
                  4 8 7 12 -1.</_>
                <_>
                  4 14 7 6 2.</_></rects>
              <tilted>0</tilted></feature>
            <threshold>-6.5679321996867657e-003</threshold>
            <left_val>0.1708409935235977</left_val>
            <right_val>-0.4665484130382538</right_val></_></_>
        <_>
          <_>
            <feature>
              <rects>
                <_>
                  15 0 4 8 -1.</_>
                <_>
                  17 0 2 4 2.</_>
                <_>
                  15 4 2 4 2.</_></rects>
              <tilted>0</tilted></feature>
            <threshold>-9.9492846056818962e-003</threshold>
            <left_val>0.2612443864345551</left_val>
            <right_val>-0.1346731036901474</right_val></_></_>
        <_>
          <_>
            <feature>
              <rects>
                <_>
                  0 4 6 12 -1.</_>
                <_>
                  3 4 3 12 2.</_></rects>
              <tilted>0</tilted></feature>
            <threshold>-0.0583461895585060</threshold>
            <left_val>0.4565382897853851</left_val>
            <right_val>-0.1517914980649948</right_val></_></_>
        <_>
          <_>
            <feature>
              <rects>
                <_>
                  12 0 8 1 -1.</_>
                <_>
                  12 0 4 1 2.</_></rects>
              <tilted>0</tilted></feature>
            <threshold>-0.0105327703058720</threshold>
            <left_val>0.4079115986824036</left_val>
            <right_val>-0.0571248494088650</right_val></_></_>
        <_>
          <_>
            <feature>
              <rects>
                <_>
                  0 0 8 1 -1.</_>
                <_>
                  4 0 4 1 2.</_></rects>
              <tilted>0</tilted></feature>
            <threshold>3.9487248286604881e-003</threshold>
            <left_val>-0.2359711974859238</left_val>
            <right_val>0.3787952959537506</right_val></_></_>
        <_>
          <_>
            <feature>
              <rects>
                <_>
                  0 2 20 10 -1.</_>
                <_>
                  0 7 20 5 2.</_></rects>
              <tilted>0</tilted></feature>
            <threshold>7.2414218448102474e-003</threshold>
            <left_val>-0.5747035741806030</left_val>
            <right_val>0.1238809004426003</right_val></_></_>
        <_>
          <_>
            <feature>
              <rects>
                <_>
                  1 3 6 6 -1.</_>
                <_>
                  4 3 3 6 2.</_></rects>
              <tilted>0</tilted></feature>
            <threshold>-0.0267932806164026</threshold>
            <left_val>0.3518682122230530</left_val>
            <right_val>-0.1483785957098007</right_val></_></_>
        <_>
          <_>
            <feature>
              <rects>
                <_>
                  19 10 1 3 -1.</_>
                <_>
                  19 11 1 1 3.</_></rects>
              <tilted>0</tilted></feature>
            <threshold>9.4886362785473466e-004</threshold>
            <left_val>0.0904899612069130</left_val>
            <right_val>-0.4400247931480408</right_val></_></_>
        <_>
          <_>
            <feature>
              <rects>
                <_>
                  0 0 6 19 -1.</_>
                <_>
                  3 0 3 19 2.</_></rects>
              <tilted>0</tilted></feature>
            <threshold>0.0620188117027283</threshold>
            <left_val>-0.1244781017303467</left_val>
            <right_val>0.3812035024166107</right_val></_></_>
        <_>
          <_>
            <feature>
              <rects>
                <_>
                  18 12 2 3 -1.</_>
                <_>
                  18 13 2 1 3.</_></rects>
              <tilted>0</tilted></feature>
            <threshold>-2.1496140398085117e-003</threshold>
            <left_val>-0.5251532196998596</left_val>
            <right_val>0.0755804106593132</right_val></_></_>
        <_>
          <_>
            <feature>
              <rects>
                <_>
                  0 14 1 3 -1.</_>
                <_>
                  0 15 1 1 3.</_></rects>
              <tilted>0</tilted></feature>
            <threshold>-5.7473918423056602e-004</threshold>
            <left_val>-0.3980906009674072</left_val>
            <right_val>0.0995958521962166</right_val></_></_>
        <_>
          <_>
            <feature>
              <rects>
                <_>
                  19 14 1 3 -1.</_>
                <_>
                  19 15 1 1 3.</_></rects>
              <tilted>0</tilted></feature>
            <threshold>-6.7677977494895458e-004</threshold>
            <left_val>-0.3863469958305359</left_val>
            <right_val>0.0877162516117096</right_val></_></_>
        <_>
          <_>
            <feature>
              <rects>
                <_>
                  2 12 16 4 -1.</_>
                <_>
                  2 13 16 2 2.</_></rects>
              <tilted>0</tilted></feature>
            <threshold>0.0127840796485543</threshold>
            <left_val>-0.1313589960336685</left_val>
            <right_val>0.3560295999050140</right_val></_></_>
        <_>
          <_>
            <feature>
              <rects>
                <_>
                  19 14 1 3 -1.</_>
                <_>
                  19 15 1 1 3.</_></rects>
              <tilted>0</tilted></feature>
            <threshold>7.5462029781192541e-004</threshold>
            <left_val>0.0791061669588089</left_val>
            <right_val>-0.3716802000999451</right_val></_></_>
        <_>
          <_>
            <feature>
              <rects>
                <_>
                  4 17 12 3 -1.</_>
                <_>
                  4 18 12 1 3.</_></rects>
              <tilted>0</tilted></feature>
            <threshold>2.1638330072164536e-003</threshold>
            <left_val>-0.1773577928543091</left_val>
            <right_val>0.2536729872226715</right_val></_></_>
        <_>
          <_>
            <feature>
              <rects>
                <_>
                  7 1 7 2 -1.</_>
                <_>
                  7 2 7 1 2.</_></rects>
              <tilted>0</tilted></feature>
            <threshold>-7.7298930846154690e-003</threshold>
            <left_val>0.3662858903408051</left_val>
            <right_val>-0.1137484014034271</right_val></_></_>
        <_>
          <_>
            <feature>
              <rects>
                <_>
                  0 14 1 3 -1.</_>
                <_>
                  0 15 1 1 3.</_></rects>
              <tilted>0</tilted></feature>
            <threshold>6.7907350603491068e-004</threshold>
            <left_val>0.1079384014010429</left_val>
            <right_val>-0.3922266960144043</right_val></_></_>
        <_>
          <_>
            <feature>
              <rects>
                <_>
                  7 6 6 6 -1.</_>
                <_>
                  7 8 6 2 3.</_></rects>
              <tilted>0</tilted></feature>
            <threshold>2.3514549247920513e-003</threshold>
            <left_val>-0.2944636046886444</left_val>
            <right_val>0.1277568936347961</right_val></_></_>
        <_>
          <_>
            <feature>
              <rects>
                <_>
                  0 6 2 3 -1.</_>
                <_>
                  0 7 2 1 3.</_></rects>
              <tilted>0</tilted></feature>
            <threshold>-2.8039729222655296e-003</threshold>
            <left_val>-0.5890830755233765</left_val>
            <right_val>0.0644409283995628</right_val></_></_>
        <_>
          <_>
            <feature>
              <rects>
                <_>
                  10 1 8 12 -1.</_>
                <_>
                  14 1 4 6 2.</_>
                <_>
                  10 7 4 6 2.</_></rects>
              <tilted>0</tilted></feature>
            <threshold>-0.0466193109750748</threshold>
            <left_val>0.4323889017105103</left_val>
            <right_val>-0.1242019981145859</right_val></_></_>
        <_>
          <_>
            <feature>
              <rects>
                <_>
                  4 10 12 7 -1.</_>
                <_>
                  8 10 4 7 3.</_></rects>
              <tilted>0</tilted></feature>
            <threshold>0.0331173688173294</threshold>
            <left_val>-0.1529289036989212</left_val>
            <right_val>0.3303965926170349</right_val></_></_>
        <_>
          <_>
            <feature>
              <rects>
                <_>
                  0 12 20 6 -1.</_>
                <_>
                  5 12 10 6 2.</_></rects>
              <tilted>0</tilted></feature>
            <threshold>-0.0223430097103119</threshold>
            <left_val>0.2210260927677155</left_val>
            <right_val>-0.2319770008325577</right_val></_></_>
        <_>
          <_>
            <feature>
              <rects>
                <_>
                  2 2 8 10 -1.</_>
                <_>
                  2 2 4 5 2.</_>
                <_>
                  6 7 4 5 2.</_></rects>
              <tilted>0</tilted></feature>
            <threshold>-0.0421641804277897</threshold>
            <left_val>0.3762421905994415</left_val>
            <right_val>-0.1037451028823853</right_val></_></_>
        <_>
          <_>
            <feature>
              <rects>
                <_>
                  6 3 8 10 -1.</_>
                <_>
                  6 8 8 5 2.</_></rects>
              <tilted>0</tilted></feature>
            <threshold>1.5690190484747291e-003</threshold>
            <left_val>-0.3119908869266510</left_val>
            <right_val>0.1242515966296196</right_val></_></_>
        <_>
          <_>
            <feature>
              <rects>
                <_>
                  0 6 5 4 -1.</_>
                <_>
                  0 7 5 2 2.</_></rects>
              <tilted>0</tilted></feature>
            <threshold>0.0132979797199368</threshold>
            <left_val>0.0670863911509514</left_val>
            <right_val>-0.5090271234512329</right_val></_></_>
        <_>
          <_>
            <feature>
              <rects>
                <_>
                  10 14 4 6 -1.</_>
                <_>
                  11 14 2 6 2.</_></rects>
              <tilted>0</tilted></feature>
            <threshold>-0.0188089702278376</threshold>
            <left_val>-0.8318740725517273</left_val>
            <right_val>0.0307018999010324</right_val></_></_>
        <_>
          <_>
            <feature>
              <rects>
                <_>
                  6 14 4 6 -1.</_>
                <_>
                  7 14 2 6 2.</_></rects>
              <tilted>0</tilted></feature>
            <threshold>0.0172615703195333</threshold>
            <left_val>0.0332711897790432</left_val>
            <right_val>-0.8848022222518921</right_val></_></_>
        <_>
          <_>
            <feature>
              <rects>
                <_>
                  3 14 14 3 -1.</_>
                <_>
                  3 15 14 1 3.</_></rects>
              <tilted>0</tilted></feature>
            <threshold>4.3012271635234356e-003</threshold>
            <left_val>-0.1428688019514084</left_val>
            <right_val>0.2438593059778214</right_val></_></_>
        <_>
          <_>
            <feature>
              <rects>
                <_>
                  8 15 4 2 -1.</_>
                <_>
                  8 16 4 1 2.</_></rects>
              <tilted>0</tilted></feature>
            <threshold>5.7600052095949650e-003</threshold>
            <left_val>-0.0712067633867264</left_val>
            <right_val>0.5482646822929382</right_val></_></_>
        <_>
          <_>
            <feature>
              <rects>
                <_>
                  19 0 1 2 -1.</_>
                <_>
                  19 1 1 1 2.</_></rects>
              <tilted>0</tilted></feature>
            <threshold>-6.4379448303952813e-004</threshold>
            <left_val>-0.4415454864501953</left_val>
            <right_val>0.1079270020127296</right_val></_></_>
        <_>
          <_>
            <feature>
              <rects>
                <_>
                  7 19 3 1 -1.</_>
                <_>
                  8 19 1 1 3.</_></rects>
              <tilted>0</tilted></feature>
            <threshold>-1.8900630529969931e-003</threshold>
            <left_val>-0.5913149714469910</left_val>
            <right_val>0.0519460402429104</right_val></_></_>
        <_>
          <_>
            <feature>
              <rects>
                <_>
                  18 12 1 3 -1.</_>
                <_>
                  18 13 1 1 3.</_></rects>
              <tilted>0</tilted></feature>
            <threshold>5.4431328317150474e-004</threshold>
            <left_val>0.0701741874217987</left_val>
            <right_val>-0.2404220998287201</right_val></_></_>
        <_>
          <_>
            <feature>
              <rects>
                <_>
                  5 10 9 1 -1.</_>
                <_>
                  8 10 3 1 3.</_></rects>
              <tilted>0</tilted></feature>
            <threshold>2.3933560587465763e-003</threshold>
            <left_val>-0.1483166962862015</left_val>
            <right_val>0.2041850984096527</right_val></_></_></trees>
      <stage_threshold>-1.7673840522766113</stage_threshold>
      <parent>1</parent>
      <next>-1</next></_>
    <_>
      <trees>
        <_>
          <_>
            <feature>
              <rects>
                <_>
                  2 5 16 8 -1.</_>
                <_>
                  2 7 16 4 2.</_></rects>
              <tilted>0</tilted></feature>
            <threshold>0.0568770989775658</threshold>
            <left_val>-0.4544906914234161</left_val>
            <right_val>0.4095993936061859</right_val></_></_>
        <_>
          <_>
            <feature>
              <rects>
                <_>
                  0 8 20 10 -1.</_>
                <_>
                  5 8 10 10 2.</_></rects>
              <tilted>0</tilted></feature>
            <threshold>-0.0640171766281128</threshold>
            <left_val>0.3660815954208374</left_val>
            <right_val>-0.3278088867664337</right_val></_></_>
        <_>
          <_>
            <feature>
              <rects>
                <_>
                  4 1 12 6 -1.</_>
                <_>
                  8 1 4 6 3.</_></rects>
              <tilted>0</tilted></feature>
            <threshold>0.0969917923212051</threshold>
            <left_val>-0.1625529974699020</left_val>
            <right_val>0.5744258165359497</right_val></_></_>
        <_>
          <_>
            <feature>
              <rects>
                <_>
                  5 2 10 18 -1.</_>
                <_>
                  5 8 10 6 3.</_></rects>
              <tilted>0</tilted></feature>
            <threshold>0.0624162107706070</threshold>
            <left_val>-0.5041499137878418</left_val>
            <right_val>0.1501803994178772</right_val></_></_>
        <_>
          <_>
            <feature>
              <rects>
                <_>
                  5 2 10 18 -1.</_>
                <_>
                  5 11 10 9 2.</_></rects>
              <tilted>0</tilted></feature>
            <threshold>-0.2447634041309357</threshold>
            <left_val>-0.7168871760368347</left_val>
            <right_val>0.0745996534824371</right_val></_></_>
        <_>
          <_>
            <feature>
              <rects>
                <_>
                  12 0 8 2 -1.</_>
                <_>
                  12 0 4 2 2.</_></rects>
              <tilted>0</tilted></feature>
            <threshold>0.0172978993505239</threshold>
            <left_val>-0.1615273952484131</left_val>
            <right_val>0.3778924047946930</right_val></_></_>
        <_>
          <_>
            <feature>
              <rects>
                <_>
                  9 13 1 6 -1.</_>
                <_>
                  9 16 1 3 2.</_></rects>
              <tilted>0</tilted></feature>
            <threshold>-7.7525997767224908e-004</threshold>
            <left_val>0.1867278963327408</left_val>
            <right_val>-0.2962962090969086</right_val></_></_>
        <_>
          <_>
            <feature>
              <rects>
                <_>
                  12 0 8 2 -1.</_>
                <_>
                  12 0 4 2 2.</_></rects>
              <tilted>0</tilted></feature>
            <threshold>-0.0255955699831247</threshold>
            <left_val>0.2391166985034943</left_val>
            <right_val>-0.0277018304914236</right_val></_></_>
        <_>
          <_>
            <feature>
              <rects>
                <_>
                  0 0 6 8 -1.</_>
                <_>
                  0 0 3 4 2.</_>
                <_>
                  3 4 3 4 2.</_></rects>
              <tilted>0</tilted></feature>
            <threshold>-0.0138128902763128</threshold>
            <left_val>0.2829037010669708</left_val>
            <right_val>-0.1744869947433472</right_val></_></_>
        <_>
          <_>
            <feature>
              <rects>
                <_>
                  1 5 19 4 -1.</_>
                <_>
                  1 6 19 2 2.</_></rects>
              <tilted>0</tilted></feature>
            <threshold>3.9429930038750172e-003</threshold>
            <left_val>-0.2124792933464050</left_val>
            <right_val>0.2307489961385727</right_val></_></_>
        <_>
          <_>
            <feature>
              <rects>
                <_>
                  0 12 1 3 -1.</_>
                <_>
                  0 13 1 1 3.</_></rects>
              <tilted>0</tilted></feature>
            <threshold>-9.9231326021254063e-004</threshold>
            <left_val>-0.5143905282020569</left_val>
            <right_val>0.0941406264901161</right_val></_></_>
        <_>
          <_>
            <feature>
              <rects>
                <_>
                  10 0 8 16 -1.</_>
                <_>
                  14 0 4 8 2.</_>
                <_>
                  10 8 4 8 2.</_></rects>
              <tilted>0</tilted></feature>
            <threshold>-0.0479444600641727</threshold>
            <left_val>0.3015188872814179</left_val>
            <right_val>-0.1507962048053742</right_val></_></_>
        <_>
          <_>
            <feature>
              <rects>
                <_>
                  0 0 1 2 -1.</_>
                <_>
                  0 1 1 1 2.</_></rects>
              <tilted>0</tilted></feature>
            <threshold>-9.4552349764853716e-004</threshold>
            <left_val>-0.5713844895362854</left_val>
            <right_val>0.0777024328708649</right_val></_></_>
        <_>
          <_>
            <feature>
              <rects>
                <_>
                  7 6 6 2 -1.</_>
                <_>
                  7 7 6 1 2.</_></rects>
              <tilted>0</tilted></feature>
            <threshold>1.5288629801943898e-003</threshold>
            <left_val>-0.3052147924900055</left_val>
            <right_val>0.1469492018222809</right_val></_></_>
        <_>
          <_>
            <feature>
              <rects>
                <_>
                  2 0 8 14 -1.</_>
                <_>
                  2 0 4 7 2.</_>
                <_>
                  6 7 4 7 2.</_></rects>
              <tilted>0</tilted></feature>
            <threshold>-0.0553338788449764</threshold>
            <left_val>0.3954210877418518</left_val>
            <right_val>-0.1455031931400299</right_val></_></_>
        <_>
          <_>
            <feature>
              <rects>
                <_>
                  16 3 4 12 -1.</_>
                <_>
                  16 3 2 12 2.</_></rects>
              <tilted>0</tilted></feature>
            <threshold>-0.0323425494134426</threshold>
            <left_val>0.4753904938697815</left_val>
            <right_val>-0.1154289990663528</right_val></_></_>
        <_>
          <_>
            <feature>
              <rects>
                <_>
                  0 1 6 17 -1.</_>
                <_>
                  3 1 3 17 2.</_></rects>
              <tilted>0</tilted></feature>
            <threshold>-0.1136083975434303</threshold>
            <left_val>0.4872973859310150</left_val>
            <right_val>-0.1188595965504646</right_val></_></_>
        <_>
          <_>
            <feature>
              <rects>
                <_>
                  16 0 4 15 -1.</_>
                <_>
                  16 0 2 15 2.</_></rects>
              <tilted>0</tilted></feature>
            <threshold>0.0288904905319214</threshold>
            <left_val>-0.0825284421443939</left_val>
            <right_val>0.3108983933925629</right_val></_></_>
        <_>
          <_>
            <feature>
              <rects>
                <_>
                  4 18 1 2 -1.</_>
                <_>
                  4 19 1 1 2.</_></rects>
              <tilted>0</tilted></feature>
            <threshold>-5.7655881391838193e-005</threshold>
            <left_val>0.1944303959608078</left_val>
            <right_val>-0.2171133011579514</right_val></_></_>
        <_>
          <_>
            <feature>
              <rects>
                <_>
                  19 12 1 3 -1.</_>
                <_>
                  19 13 1 1 3.</_></rects>
              <tilted>0</tilted></feature>
            <threshold>8.3954568253830075e-004</threshold>
            <left_val>0.0867265835404396</left_val>
            <right_val>-0.3787258863449097</right_val></_></_>
        <_>
          <_>
            <feature>
              <rects>
                <_>
                  3 16 12 3 -1.</_>
                <_>
                  7 17 4 1 9.</_></rects>
              <tilted>0</tilted></feature>
            <threshold>7.8724175691604614e-003</threshold>
            <left_val>-0.1552858054637909</left_val>
            <right_val>0.2469668984413147</right_val></_></_>
        <_>
          <_>
            <feature>
              <rects>
                <_>
                  19 12 1 3 -1.</_>
                <_>
                  19 13 1 1 3.</_></rects>
              <tilted>0</tilted></feature>
            <threshold>-9.8846666514873505e-004</threshold>
            <left_val>-0.5076562762260437</left_val>
            <right_val>0.0867218896746635</right_val></_></_>
        <_>
          <_>
            <feature>
              <rects>
                <_>
                  5 16 9 4 -1.</_>
                <_>
                  5 18 9 2 2.</_></rects>
              <tilted>0</tilted></feature>
            <threshold>0.0108110997825861</threshold>
            <left_val>-0.1389808952808380</left_val>
            <right_val>0.3070668876171112</right_val></_></_>
        <_>
          <_>
            <feature>
              <rects>
                <_>
                  9 18 2 2 -1.</_>
                <_>
                  9 19 2 1 2.</_></rects>
              <tilted>0</tilted></feature>
            <threshold>-5.1296938909217715e-004</threshold>
            <left_val>0.2316679060459137</left_val>
            <right_val>-0.1706795990467072</right_val></_></_>
        <_>
          <_>
            <feature>
              <rects>
                <_>
                  0 12 1 3 -1.</_>
                <_>
                  0 13 1 1 3.</_></rects>
              <tilted>0</tilted></feature>
            <threshold>7.9592451220378280e-004</threshold>
            <left_val>0.1009429022669792</left_val>
            <right_val>-0.4087069034576416</right_val></_></_>
        <_>
          <_>
            <feature>
              <rects>
                <_>
                  7 7 7 4 -1.</_>
                <_>
                  7 8 7 2 2.</_></rects>
              <tilted>0</tilted></feature>
            <threshold>1.3566639972850680e-003</threshold>
            <left_val>-0.2579815983772278</left_val>
            <right_val>0.1433124989271164</right_val></_></_>
        <_>
          <_>
            <feature>
              <rects>
                <_>
                  0 0 4 13 -1.</_>
                <_>
                  2 0 2 13 2.</_></rects>
              <tilted>0</tilted></feature>
            <threshold>0.0359358005225658</threshold>
            <left_val>-0.0966815575957298</left_val>
            <right_val>0.4020594060420990</right_val></_></_>
        <_>
          <_>
            <feature>
              <rects>
                <_>
                  17 17 2 3 -1.</_>
                <_>
                  17 18 2 1 3.</_></rects>
              <tilted>0</tilted></feature>
            <threshold>-1.3600699603557587e-003</threshold>
            <left_val>-0.3215306103229523</left_val>
            <right_val>0.0904948487877846</right_val></_></_>
        <_>
          <_>
            <feature>
              <rects>
                <_>
                  1 17 2 3 -1.</_>
                <_>
                  1 18 2 1 3.</_></rects>
              <tilted>0</tilted></feature>
            <threshold>1.6334869433194399e-003</threshold>
            <left_val>0.0883332714438438</left_val>
            <right_val>-0.4134790897369385</right_val></_></_>
        <_>
          <_>
            <feature>
              <rects>
                <_>
                  9 9 2 8 -1.</_>
                <_>
                  9 13 2 4 2.</_></rects>
              <tilted>0</tilted></feature>
            <threshold>-7.6884322334080935e-004</threshold>
            <left_val>0.1233472973108292</left_val>
            <right_val>-0.3101662099361420</right_val></_></_>
        <_>
          <_>
            <feature>
              <rects>
                <_>
                  2 0 13 4 -1.</_>
                <_>
                  2 2 13 2 2.</_></rects>
              <tilted>0</tilted></feature>
            <threshold>-0.0382001996040344</threshold>
            <left_val>0.3158118128776550</left_val>
            <right_val>-0.1195577979087830</right_val></_></_>
        <_>
          <_>
            <feature>
              <rects>
                <_>
                  18 17 1 3 -1.</_>
                <_>
                  18 18 1 1 3.</_></rects>
              <tilted>0</tilted></feature>
            <threshold>7.4386008782312274e-004</threshold>
            <left_val>0.0802389830350876</left_val>
            <right_val>-0.3046715855598450</right_val></_></_>
        <_>
          <_>
            <feature>
              <rects>
                <_>
                  1 17 1 3 -1.</_>
                <_>
                  1 18 1 1 3.</_></rects>
              <tilted>0</tilted></feature>
            <threshold>-6.3167040934786201e-004</threshold>
            <left_val>-0.3474558889865875</left_val>
            <right_val>0.1047704964876175</right_val></_></_>
        <_>
          <_>
            <feature>
              <rects>
                <_>
                  4 12 15 3 -1.</_>
                <_>
                  4 13 15 1 3.</_></rects>
              <tilted>0</tilted></feature>
            <threshold>3.4364620223641396e-003</threshold>
            <left_val>-0.1345006972551346</left_val>
            <right_val>0.2046187072992325</right_val></_></_>
        <_>
          <_>
            <feature>
              <rects>
                <_>
                  2 11 16 4 -1.</_>
                <_>
                  2 12 16 2 2.</_></rects>
              <tilted>0</tilted></feature>
            <threshold>-6.6419620998203754e-003</threshold>
            <left_val>0.2821122109889984</left_val>
            <right_val>-0.1365620940923691</right_val></_></_>
        <_>
          <_>
            <feature>
              <rects>
                <_>
                  2 5 16 8 -1.</_>
                <_>
                  2 7 16 4 2.</_></rects>
              <tilted>0</tilted></feature>
            <threshold>0.0588343702256680</threshold>
            <left_val>0.1550987958908081</left_val>
            <right_val>-0.2182365059852600</right_val></_></_>
        <_>
          <_>
            <feature>
              <rects>
                <_>
                  10 1 4 8 -1.</_>
                <_>
                  10 1 4 4 2.</_></rects>
              <tilted>1</tilted></feature>
            <threshold>0.0863954275846481</threshold>
            <left_val>0.0491864606738091</left_val>
            <right_val>-0.7593073248863220</right_val></_></_>
        <_>
          <_>
            <feature>
              <rects>
                <_>
                  9 13 4 7 -1.</_>
                <_>
                  10 13 2 7 2.</_></rects>
              <tilted>0</tilted></feature>
            <threshold>0.0191949997097254</threshold>
            <left_val>0.0165880508720875</left_val>
            <right_val>-0.7142949104309082</right_val></_></_>
        <_>
          <_>
            <feature>
              <rects>
                <_>
                  7 16 4 4 -1.</_>
                <_>
                  8 16 2 4 2.</_></rects>
              <tilted>0</tilted></feature>
            <threshold>7.5314240530133247e-003</threshold>
            <left_val>0.0471561811864376</left_val>
            <right_val>-0.6485887169837952</right_val></_></_>
        <_>
          <_>
            <feature>
              <rects>
                <_>
                  4 16 12 1 -1.</_>
                <_>
                  8 16 4 1 3.</_></rects>
              <tilted>0</tilted></feature>
            <threshold>3.5915970802307129e-003</threshold>
            <left_val>-0.1533578932285309</left_val>
            <right_val>0.2503153085708618</right_val></_></_></trees>
      <stage_threshold>-1.5385349988937378</stage_threshold>
      <parent>2</parent>
      <next>-1</next></_>
    <_>
      <trees>
        <_>
          <_>
            <feature>
              <rects>
                <_>
                  2 5 14 8 -1.</_>
                <_>
                  2 7 14 4 2.</_></rects>
              <tilted>0</tilted></feature>
            <threshold>0.0729405283927917</threshold>
            <left_val>-0.3147388100624085</left_val>
            <right_val>0.3992961049079895</right_val></_></_>
        <_>
          <_>
            <feature>
              <rects>
                <_>
                  0 16 20 2 -1.</_>
                <_>
                  5 16 10 2 2.</_></rects>
              <tilted>0</tilted></feature>
            <threshold>-0.0352681614458561</threshold>
            <left_val>0.4014315903186798</left_val>
            <right_val>-0.2632729113101959</right_val></_></_>
        <_>
          <_>
            <feature>
              <rects>
                <_>
                  5 1 6 6 -1.</_>
                <_>
                  8 1 3 6 2.</_></rects>
              <tilted>0</tilted></feature>
            <threshold>0.0256919302046299</threshold>
            <left_val>-0.1989302039146423</left_val>
            <right_val>0.4292292892932892</right_val></_></_>
        <_>
          <_>
            <feature>
              <rects>
                <_>
                  0 5 20 2 -1.</_>
                <_>
                  0 6 20 1 2.</_></rects>
              <tilted>0</tilted></feature>
            <threshold>8.0759208649396896e-003</threshold>
            <left_val>-0.3274934887886047</left_val>
            <right_val>0.1946379989385605</right_val></_></_>
        <_>
          <_>
            <feature>
              <rects>
                <_>
                  0 0 8 2 -1.</_>
                <_>
                  4 0 4 2 2.</_></rects>
              <tilted>0</tilted></feature>
            <threshold>0.0212429091334343</threshold>
            <left_val>-0.1515334993600845</left_val>
            <right_val>0.4084351956844330</right_val></_></_>
        <_>
          <_>
            <feature>
              <rects>
                <_>
                  14 0 6 18 -1.</_>
                <_>
                  14 0 3 18 2.</_></rects>
              <tilted>0</tilted></feature>
            <threshold>-0.1228602007031441</threshold>
            <left_val>0.4306175112724304</left_val>
            <right_val>-0.0888100787997246</right_val></_></_>
        <_>
          <_>
            <feature>
              <rects>
                <_>
                  0 8 4 9 -1.</_>
                <_>
                  2 8 2 9 2.</_></rects>
              <tilted>0</tilted></feature>
            <threshold>-0.0380162708461285</threshold>
            <left_val>0.5483949780464172</left_val>
            <right_val>-0.1162192001938820</right_val></_></_>
        <_>
          <_>
            <feature>
              <rects>
                <_>
                  0 2 20 18 -1.</_>
                <_>
                  0 8 20 6 3.</_></rects>
              <tilted>0</tilted></feature>
            <threshold>6.3438521465286613e-004</threshold>
            <left_val>-0.6073200106620789</left_val>
            <right_val>0.0876081213355064</right_val></_></_>
        <_>
          <_>
            <feature>
              <rects>
                <_>
                  0 9 2 3 -1.</_>
                <_>
                  0 10 2 1 3.</_></rects>
              <tilted>0</tilted></feature>
            <threshold>2.9646740294992924e-003</threshold>
            <left_val>0.0764618963003159</left_val>
            <right_val>-0.6157932281494141</right_val></_></_>
        <_>
          <_>
            <feature>
              <rects>
                <_>
                  14 7 6 9 -1.</_>
                <_>
                  16 7 2 9 3.</_></rects>
              <tilted>0</tilted></feature>
            <threshold>0.0123987598344684</threshold>
            <left_val>-0.1120712980628014</left_val>
            <right_val>0.2028674930334091</right_val></_></_>
        <_>
          <_>
            <feature>
              <rects>
                <_>
                  8 0 3 1 -1.</_>
                <_>
                  9 0 1 1 3.</_></rects>
              <tilted>0</tilted></feature>
            <threshold>2.5590870063751936e-003</threshold>
            <left_val>0.0557492710649967</left_val>
            <right_val>-0.6893219947814941</right_val></_></_>
        <_>
          <_>
            <feature>
              <rects>
                <_>
                  16 4 4 10 -1.</_>
                <_>
                  18 4 2 5 2.</_>
                <_>
                  16 9 2 5 2.</_></rects>
              <tilted>0</tilted></feature>
            <threshold>0.0123685300350189</threshold>
            <left_val>-0.0700310170650482</left_val>
            <right_val>0.1775812059640884</right_val></_></_>
        <_>
          <_>
            <feature>
              <rects>
                <_>
                  0 1 10 6 -1.</_>
                <_>
                  5 1 5 6 2.</_></rects>
              <tilted>0</tilted></feature>
            <threshold>-0.0882500335574150</threshold>
            <left_val>0.4109969139099121</left_val>
            <right_val>-0.1087390035390854</right_val></_></_>
        <_>
          <_>
            <feature>
              <rects>
                <_>
                  17 16 2 1 -1.</_>
                <_>
                  17 16 1 1 2.</_></rects>
              <tilted>1</tilted></feature>
            <threshold>5.7069708418566734e-005</threshold>
            <left_val>-0.1128993034362793</left_val>
            <right_val>0.1299625933170319</right_val></_></_>
        <_>
          <_>
            <feature>
              <rects>
                <_>
                  3 16 1 2 -1.</_>
                <_>
                  3 16 1 1 2.</_></rects>
              <tilted>1</tilted></feature>
            <threshold>5.0484879466239363e-005</threshold>
            <left_val>-0.2246417999267578</left_val>
            <right_val>0.1914523988962174</right_val></_></_>
        <_>
          <_>
            <feature>
              <rects>
                <_>
                  9 0 3 2 -1.</_>
                <_>
                  10 0 1 2 3.</_></rects>
              <tilted>0</tilted></feature>
            <threshold>3.9361831732094288e-003</threshold>
            <left_val>0.0615852698683739</left_val>
            <right_val>-0.6039944291114807</right_val></_></_>
        <_>
          <_>
            <feature>
              <rects>
                <_>
                  8 18 3 2 -1.</_>
                <_>
                  9 18 1 2 3.</_></rects>
              <tilted>0</tilted></feature>
            <threshold>2.9088458977639675e-003</threshold>
            <left_val>0.0528586506843567</left_val>
            <right_val>-0.6623060703277588</right_val></_></_>
        <_>
          <_>
            <feature>
              <rects>
                <_>
                  4 1 12 12 -1.</_>
                <_>
                  4 7 12 6 2.</_></rects>
              <tilted>0</tilted></feature>
            <threshold>0.3164880871772766</threshold>
            <left_val>0.0457682609558105</left_val>
            <right_val>-0.7368875741958618</right_val></_></_>
        <_>
          <_>
            <feature>
              <rects>
                <_>
                  0 10 1 3 -1.</_>
                <_>
                  0 11 1 1 3.</_></rects>
              <tilted>0</tilted></feature>
            <threshold>1.7908000154420733e-003</threshold>
            <left_val>0.0548090487718582</left_val>
            <right_val>-0.6127603054046631</right_val></_></_>
        <_>
          <_>
            <feature>
              <rects>
                <_>
                  8 6 5 2 -1.</_>
                <_>
                  8 7 5 1 2.</_></rects>
              <tilted>0</tilted></feature>
            <threshold>6.6427059937268496e-004</threshold>
            <left_val>-0.3172673881053925</left_val>
            <right_val>0.1139352992177010</right_val></_></_>
        <_>
          <_>
            <feature>
              <rects>
                <_>
                  0 7 14 3 -1.</_>
                <_>
                  0 8 14 1 3.</_></rects>
              <tilted>0</tilted></feature>
            <threshold>0.0298519209027290</threshold>
            <left_val>0.0473144501447678</left_val>
            <right_val>-0.7107886075973511</right_val></_></_>
        <_>
          <_>
            <feature>
              <rects>
                <_>
                  16 4 4 8 -1.</_>
                <_>
                  18 4 2 4 2.</_>
                <_>
                  16 8 2 4 2.</_></rects>
              <tilted>0</tilted></feature>
            <threshold>-0.0103591298684478</threshold>
            <left_val>0.2346059978008270</left_val>
            <right_val>-0.0639596730470657</right_val></_></_>
        <_>
          <_>
            <feature>
              <rects>
                <_>
                  0 4 4 8 -1.</_>
                <_>
                  0 4 2 4 2.</_>
                <_>
                  2 8 2 4 2.</_></rects>
              <tilted>0</tilted></feature>
            <threshold>0.0123486202210188</threshold>
            <left_val>-0.1202552989125252</left_val>
            <right_val>0.3431096076965332</right_val></_></_>
        <_>
          <_>
            <feature>
              <rects>
                <_>
                  11 6 5 14 -1.</_>
                <_>
                  11 13 5 7 2.</_></rects>
              <tilted>0</tilted></feature>
            <threshold>-0.1404885947704315</threshold>
            <left_val>-0.5755556821823120</left_val>
            <right_val>0.0387597084045410</right_val></_></_>
        <_>
          <_>
            <feature>
              <rects>
                <_>
                  6 6 5 3 -1.</_>
                <_>
                  6 7 5 1 3.</_></rects>
              <tilted>0</tilted></feature>
            <threshold>9.8661780357360840e-003</threshold>
            <left_val>0.0623889304697514</left_val>
            <right_val>-0.4938217997550964</right_val></_></_>
        <_>
          <_>
            <feature>
              <rects>
                <_>
                  1 9 18 8 -1.</_>
                <_>
                  10 9 9 4 2.</_>
                <_>
                  1 13 9 4 2.</_></rects>
              <tilted>0</tilted></feature>
            <threshold>-0.0909700170159340</threshold>
            <left_val>-0.6623539924621582</left_val>
            <right_val>0.0450624786317348</right_val></_></_>
        <_>
          <_>
            <feature>
              <rects>
                <_>
                  3 14 13 3 -1.</_>
                <_>
                  3 15 13 1 3.</_></rects>
              <tilted>0</tilted></feature>
            <threshold>7.6862592250108719e-003</threshold>
            <left_val>-0.1193578988313675</left_val>
            <right_val>0.2796399891376495</right_val></_></_>
        <_>
          <_>
            <feature>
              <rects>
                <_>
                  14 14 4 2 -1.</_>
                <_>
                  14 15 4 1 2.</_></rects>
              <tilted>0</tilted></feature>
            <threshold>-6.3798288465477526e-005</threshold>
            <left_val>0.1398268938064575</left_val>
            <right_val>-0.1709672063589096</right_val></_></_>
        <_>
          <_>
            <feature>
              <rects>
                <_>
                  0 17 1 3 -1.</_>
                <_>
                  0 18 1 1 3.</_></rects>
              <tilted>0</tilted></feature>
            <threshold>1.4483210397884250e-003</threshold>
            <left_val>0.0686642974615097</left_val>
            <right_val>-0.4825260043144226</right_val></_></_>
        <_>
          <_>
            <feature>
              <rects>
                <_>
                  7 15 10 2 -1.</_>
                <_>
                  12 15 5 1 2.</_>
                <_>
                  7 16 5 1 2.</_></rects>
              <tilted>0</tilted></feature>
            <threshold>6.1046639457345009e-003</threshold>
            <left_val>-0.0640238225460052</left_val>
            <right_val>0.2997221052646637</right_val></_></_>
        <_>
          <_>
            <feature>
              <rects>
                <_>
                  0 17 1 3 -1.</_>
                <_>
                  0 18 1 1 3.</_></rects>
              <tilted>0</tilted></feature>
            <threshold>-8.1748410593718290e-004</threshold>
            <left_val>-0.4061310887336731</left_val>
            <right_val>0.0886785909533501</right_val></_></_>
        <_>
          <_>
            <feature>
              <rects>
                <_>
                  5 15 12 2 -1.</_>
                <_>
                  11 15 6 1 2.</_>
                <_>
                  5 16 6 1 2.</_></rects>
              <tilted>0</tilted></feature>
            <threshold>-2.9308060184121132e-003</threshold>
            <left_val>0.2008004039525986</left_val>
            <right_val>-0.1063734963536263</right_val></_></_>
        <_>
          <_>
            <feature>
              <rects>
                <_>
                  0 0 2 7 -1.</_>
                <_>
                  1 0 1 7 2.</_></rects>
              <tilted>0</tilted></feature>
            <threshold>6.6976500675082207e-003</threshold>
            <left_val>-0.0873185098171234</left_val>
            <right_val>0.3733632862567902</right_val></_></_>
        <_>
          <_>
            <feature>
              <rects>
                <_>
                  14 5 3 11 -1.</_>
                <_>
                  15 5 1 11 3.</_></rects>
              <tilted>0</tilted></feature>
            <threshold>0.0238107908517122</threshold>
            <left_val>0.0321962796151638</left_val>
            <right_val>-0.7856469750404358</right_val></_></_>
        <_>
          <_>
            <feature>
              <rects>
                <_>
                  3 5 3 11 -1.</_>
                <_>
                  4 5 1 11 3.</_></rects>
              <tilted>0</tilted></feature>
            <threshold>0.0193647798150778</threshold>
            <left_val>0.0388083904981613</left_val>
            <right_val>-0.7175949811935425</right_val></_></_>
        <_>
          <_>
            <feature>
              <rects>
                <_>
                  10 0 3 2 -1.</_>
                <_>
                  11 0 1 2 3.</_></rects>
              <tilted>0</tilted></feature>
            <threshold>6.1042699962854385e-003</threshold>
            <left_val>0.0265916697680950</left_val>
            <right_val>-0.7054687738418579</right_val></_></_>
        <_>
          <_>
            <feature>
              <rects>
                <_>
                  5 12 5 8 -1.</_>
                <_>
                  5 16 5 4 2.</_></rects>
              <tilted>0</tilted></feature>
            <threshold>-0.0643894374370575</threshold>
            <left_val>-0.5552874207496643</left_val>
            <right_val>0.0496032685041428</right_val></_></_>
        <_>
          <_>
            <feature>
              <rects>
                <_>
                  14 14 4 2 -1.</_>
                <_>
                  14 15 4 1 2.</_></rects>
              <tilted>0</tilted></feature>
            <threshold>-4.4663897715508938e-003</threshold>
            <left_val>-0.1788534969091415</left_val>
            <right_val>0.0297726392745972</right_val></_></_>
        <_>
          <_>
            <feature>
              <rects>
                <_>
                  2 14 4 2 -1.</_>
                <_>
                  2 15 4 1 2.</_></rects>
              <tilted>0</tilted></feature>
            <threshold>-6.2985156546346843e-005</threshold>
            <left_val>0.1672632992267609</left_val>
            <right_val>-0.2011813968420029</right_val></_></_>
        <_>
          <_>
            <feature>
              <rects>
                <_>
                  10 0 3 2 -1.</_>
                <_>
                  11 0 1 2 3.</_></rects>
              <tilted>0</tilted></feature>
            <threshold>-2.8781250584870577e-003</threshold>
            <left_val>-0.4253883957862854</left_val>
            <right_val>0.0463790595531464</right_val></_></_>
        <_>
          <_>
            <feature>
              <rects>
                <_>
                  8 17 3 3 -1.</_>
                <_>
                  9 17 1 3 3.</_></rects>
              <tilted>0</tilted></feature>
            <threshold>-3.2512990292161703e-003</threshold>
            <left_val>-0.4798370897769928</left_val>
            <right_val>0.0626725926995277</right_val></_></_>
        <_>
          <_>
            <feature>
              <rects>
                <_>
                  8 18 6 2 -1.</_>
                <_>
                  8 18 3 2 2.</_></rects>
              <tilted>0</tilted></feature>
            <threshold>1.1639159638434649e-003</threshold>
            <left_val>-0.0819774493575096</left_val>
            <right_val>0.1023795977234840</right_val></_></_>
        <_>
          <_>
            <feature>
              <rects>
                <_>
                  5 3 8 16 -1.</_>
                <_>
                  5 11 8 8 2.</_></rects>
              <tilted>0</tilted></feature>
            <threshold>0.1707161068916321</threshold>
            <left_val>0.0445472002029419</left_val>
            <right_val>-0.7111601829528809</right_val></_></_>
        <_>
          <_>
            <feature>
              <rects>
                <_>
                  10 0 1 4 -1.</_>
                <_>
                  10 0 1 2 2.</_></rects>
              <tilted>1</tilted></feature>
            <threshold>2.4567679502069950e-003</threshold>
            <left_val>-0.0815337672829628</left_val>
            <right_val>0.0696532428264618</right_val></_></_>
        <_>
          <_>
            <feature>
              <rects>
                <_>
                  7 0 3 2 -1.</_>
                <_>
                  8 0 1 2 3.</_></rects>
              <tilted>0</tilted></feature>
            <threshold>6.1260480433702469e-003</threshold>
            <left_val>0.0397043898701668</left_val>
            <right_val>-0.7742164134979248</right_val></_></_>
        <_>
          <_>
            <feature>
              <rects>
                <_>
                  9 17 2 2 -1.</_>
                <_>
                  9 18 2 1 2.</_></rects>
              <tilted>0</tilted></feature>
            <threshold>-3.5096739884465933e-004</threshold>
            <left_val>0.1895132958889008</left_val>
            <right_val>-0.1564707010984421</right_val></_></_>
        <_>
          <_>
            <feature>
              <rects>
                <_>
                  2 16 8 4 -1.</_>
                <_>
                  2 16 4 2 2.</_>
                <_>
                  6 18 4 2 2.</_></rects>
              <tilted>0</tilted></feature>
            <threshold>8.8671203702688217e-003</threshold>
            <left_val>-0.1062444001436234</left_val>
            <right_val>0.3140777051448822</right_val></_></_>
        <_>
          <_>
            <feature>
              <rects>
                <_>
                  14 2 2 6 -1.</_>
                <_>
                  14 4 2 2 3.</_></rects>
              <tilted>0</tilted></feature>
            <threshold>2.0835390314459801e-003</threshold>
            <left_val>-0.0467847809195518</left_val>
            <right_val>0.1183935031294823</right_val></_></_>
        <_>
          <_>
            <feature>
              <rects>
                <_>
                  0 7 1 2 -1.</_>
                <_>
                  0 8 1 1 2.</_></rects>
              <tilted>0</tilted></feature>
            <threshold>-1.1518190149217844e-003</threshold>
            <left_val>-0.4682391881942749</left_val>
            <right_val>0.0632782503962517</right_val></_></_>
        <_>
          <_>
            <feature>
              <rects>
                <_>
                  13 3 3 2 -1.</_>
                <_>
                  13 4 3 1 2.</_></rects>
              <tilted>0</tilted></feature>
            <threshold>1.9571790471673012e-003</threshold>
            <left_val>-0.0596949309110641</left_val>
            <right_val>0.1336840987205505</right_val></_></_>
        <_>
          <_>
            <feature>
              <rects>
                <_>
                  8 8 4 3 -1.</_>
                <_>
                  8 9 4 1 3.</_></rects>
              <tilted>0</tilted></feature>
            <threshold>6.3035229686647654e-005</threshold>
            <left_val>-0.2004760056734085</left_val>
            <right_val>0.1331730931997299</right_val></_></_>
        <_>
          <_>
            <feature>
              <rects>
                <_>
                  13 1 3 9 -1.</_>
                <_>
                  13 4 3 3 3.</_></rects>
              <tilted>0</tilted></feature>
            <threshold>-6.8601150996983051e-003</threshold>
            <left_val>0.0901013016700745</left_val>
            <right_val>-0.1025492027401924</right_val></_></_>
        <_>
          <_>
            <feature>
              <rects>
                <_>
                  4 1 3 9 -1.</_>
                <_>
                  4 4 3 3 3.</_></rects>
              <tilted>0</tilted></feature>
            <threshold>0.0267123803496361</threshold>
            <left_val>-0.0659035965800285</left_val>
            <right_val>0.5106502175331116</right_val></_></_></trees>
      <stage_threshold>-1.5855699777603149</stage_threshold>
      <parent>3</parent>
      <next>-1</next></_>
    <_>
      <trees>
        <_>
          <_>
            <feature>
              <rects>
                <_>
                  0 4 20 6 -1.</_>
                <_>
                  0 7 20 3 2.</_></rects>
              <tilted>0</tilted></feature>
            <threshold>0.1002798005938530</threshold>
            <left_val>-0.4278500974178314</left_val>
            <right_val>0.3755685091018677</right_val></_></_>
        <_>
          <_>
            <feature>
              <rects>
                <_>
                  0 16 20 2 -1.</_>
                <_>
                  5 16 10 2 2.</_></rects>
              <tilted>0</tilted></feature>
            <threshold>-0.0220425408333540</threshold>
            <left_val>0.2954136133193970</left_val>
            <right_val>-0.3135490119457245</right_val></_></_>
        <_>
          <_>
            <feature>
              <rects>
                <_>
                  3 3 8 10 -1.</_>
                <_>
                  3 3 4 5 2.</_>
                <_>
                  7 8 4 5 2.</_></rects>
              <tilted>0</tilted></feature>
            <threshold>-0.0446271598339081</threshold>
            <left_val>0.4509077072143555</left_val>
            <right_val>-0.1567142009735107</right_val></_></_>
        <_>
          <_>
            <feature>
              <rects>
                <_>
                  10 0 10 6 -1.</_>
                <_>
                  15 0 5 3 2.</_>
                <_>
                  10 3 5 3 2.</_></rects>
              <tilted>0</tilted></feature>
            <threshold>-0.0134356897324324</threshold>
            <left_val>0.2137082070112228</left_val>
            <right_val>-0.2431650012731552</right_val></_></_>
        <_>
          <_>
            <feature>
              <rects>
                <_>
                  5 8 9 9 -1.</_>
                <_>
                  8 8 3 9 3.</_></rects>
              <tilted>0</tilted></feature>
            <threshold>0.0150399301201105</threshold>
            <left_val>-0.2087458968162537</left_val>
            <right_val>0.2591280937194824</right_val></_></_>
        <_>
          <_>
            <feature>
              <rects>
                <_>
                  14 0 6 4 -1.</_>
                <_>
                  17 0 3 2 2.</_>
                <_>
                  14 2 3 2 2.</_></rects>
              <tilted>0</tilted></feature>
            <threshold>-0.0111317196860909</threshold>
            <left_val>0.3123666942119598</left_val>
            <right_val>-0.0909156203269959</right_val></_></_>
        <_>
          <_>
            <feature>
              <rects>
                <_>
                  1 2 15 2 -1.</_>
                <_>
                  1 3 15 1 2.</_></rects>
              <tilted>0</tilted></feature>
            <threshold>8.2372110337018967e-003</threshold>
            <left_val>-0.1225337013602257</left_val>
            <right_val>0.3519622087478638</right_val></_></_>
        <_>
          <_>
            <feature>
              <rects>
                <_>
                  12 0 8 6 -1.</_>
                <_>
                  16 0 4 3 2.</_>
                <_>
                  12 3 4 3 2.</_></rects>
              <tilted>0</tilted></feature>
            <threshold>-0.0110544301569462</threshold>
            <left_val>0.0711370632052422</left_val>
            <right_val>-0.0470762699842453</right_val></_></_>
        <_>
          <_>
            <feature>
              <rects>
                <_>
                  0 0 6 4 -1.</_>
                <_>
                  0 0 3 2 2.</_>
                <_>
                  3 2 3 2 2.</_></rects>
              <tilted>0</tilted></feature>
            <threshold>-6.4510349184274673e-003</threshold>
            <left_val>0.2593865096569061</left_val>
            <right_val>-0.1696026027202606</right_val></_></_>
        <_>
          <_>
            <feature>
              <rects>
                <_>
                  19 4 1 2 -1.</_>
                <_>
                  19 5 1 1 2.</_></rects>
              <tilted>0</tilted></feature>
            <threshold>-4.6397090773098171e-004</threshold>
            <left_val>-0.3533112108707428</left_val>
            <right_val>0.0973205864429474</right_val></_></_>
        <_>
          <_>
            <feature>
              <rects>
                <_>
                  7 7 6 3 -1.</_>
                <_>
                  7 8 6 1 3.</_></rects>
              <tilted>0</tilted></feature>
            <threshold>8.2097062841057777e-004</threshold>
            <left_val>-0.2561953067779541</left_val>
            <right_val>0.1536636948585510</right_val></_></_>
        <_>
          <_>
            <feature>
              <rects>
                <_>
                  10 13 3 7 -1.</_>
                <_>
                  11 13 1 7 3.</_></rects>
              <tilted>0</tilted></feature>
            <threshold>-0.0161109101027250</threshold>
            <left_val>-0.9009044766426086</left_val>
            <right_val>0.0384696796536446</right_val></_></_>
        <_>
          <_>
            <feature>
              <rects>
                <_>
                  8 4 2 3 -1.</_>
                <_>
                  9 4 1 3 2.</_></rects>
              <tilted>0</tilted></feature>
            <threshold>2.0767820533365011e-003</threshold>
            <left_val>-0.1370617002248764</left_val>
            <right_val>0.2778741121292114</right_val></_></_>
        <_>
          <_>
            <feature>
              <rects>
                <_>
                  10 13 3 7 -1.</_>
                <_>
                  11 13 1 7 3.</_></rects>
              <tilted>0</tilted></feature>
            <threshold>8.1157274544239044e-003</threshold>
            <left_val>0.0538292713463306</left_val>
            <right_val>-0.6007316112518311</right_val></_></_>
        <_>
          <_>
            <feature>
              <rects>
                <_>
                  0 4 1 2 -1.</_>
                <_>
                  0 5 1 1 2.</_></rects>
              <tilted>0</tilted></feature>
            <threshold>-5.9679371770471334e-004</threshold>
            <left_val>-0.4218078851699829</left_val>
            <right_val>0.0818395093083382</right_val></_></_>
        <_>
          <_>
            <feature>
              <rects>
                <_>
                  8 8 5 4 -1.</_>
                <_>
                  8 9 5 2 2.</_></rects>
              <tilted>0</tilted></feature>
            <threshold>4.7456880565732718e-004</threshold>
            <left_val>-0.2377786040306091</left_val>
            <right_val>0.1445880979299545</right_val></_></_>
        <_>
          <_>
            <feature>
              <rects>
                <_>
                  0 10 1 3 -1.</_>
                <_>
                  0 11 1 1 3.</_></rects>
              <tilted>0</tilted></feature>
            <threshold>-1.2280950322747231e-003</threshold>
            <left_val>-0.4702117145061493</left_val>
            <right_val>0.0782943069934845</right_val></_></_>
        <_>
          <_>
            <feature>
              <rects>
                <_>
                  12 0 3 2 -1.</_>
                <_>
                  13 0 1 2 3.</_></rects>
              <tilted>0</tilted></feature>
            <threshold>3.7769689224660397e-003</threshold>
            <left_val>0.0464283190667629</left_val>
            <right_val>-0.4846217036247253</right_val></_></_>
        <_>
          <_>
            <feature>
              <rects>
                <_>
                  0 1 6 19 -1.</_>
                <_>
                  3 1 3 19 2.</_></rects>
              <tilted>0</tilted></feature>
            <threshold>0.0877564325928688</threshold>
            <left_val>-0.0925629734992981</left_val>
            <right_val>0.4092693924903870</right_val></_></_>
        <_>
          <_>
            <feature>
              <rects>
                <_>
                  16 4 4 7 -1.</_>
                <_>
                  16 4 2 7 2.</_></rects>
              <tilted>0</tilted></feature>
            <threshold>-0.0140284495428205</threshold>
            <left_val>0.2646991908550263</left_val>
            <right_val>-0.1164821982383728</right_val></_></_>
        <_>
          <_>
            <feature>
              <rects>
                <_>
                  0 0 20 2 -1.</_>
                <_>
                  10 0 10 2 2.</_></rects>
              <tilted>0</tilted></feature>
            <threshold>-0.0424576587975025</threshold>
            <left_val>0.3036434054374695</left_val>
            <right_val>-0.1286396980285645</right_val></_></_>
        <_>
          <_>
            <feature>
              <rects>
                <_>
                  5 16 10 4 -1.</_>
                <_>
                  5 18 10 2 2.</_></rects>
              <tilted>0</tilted></feature>
            <threshold>0.0111530600115657</threshold>
            <left_val>-0.1278198063373566</left_val>
            <right_val>0.2929812967777252</right_val></_></_>
        <_>
          <_>
            <feature>
              <rects>
                <_>
                  7 13 3 7 -1.</_>
                <_>
                  8 13 1 7 3.</_></rects>
              <tilted>0</tilted></feature>
            <threshold>8.7868096306920052e-003</threshold>
            <left_val>0.0536991916596890</left_val>
            <right_val>-0.6843860745429993</right_val></_></_>
        <_>
          <_>
            <feature>
              <rects>
                <_>
                  19 10 1 3 -1.</_>
                <_>
                  19 11 1 1 3.</_></rects>
              <tilted>0</tilted></feature>
            <threshold>-1.0560749797150493e-003</threshold>
            <left_val>-0.4262003004550934</left_val>
            <right_val>0.0707837790250778</right_val></_></_>
        <_>
          <_>
            <feature>
              <rects>
                <_>
                  4 12 1 8 -1.</_>
                <_>
                  4 16 1 4 2.</_></rects>
              <tilted>0</tilted></feature>
            <threshold>-2.3671300150454044e-003</threshold>
            <left_val>0.1848255991935730</left_val>
            <right_val>-0.1936662048101425</right_val></_></_>
        <_>
          <_>
            <feature>
              <rects>
                <_>
                  19 10 1 3 -1.</_>
                <_>
                  19 11 1 1 3.</_></rects>
              <tilted>0</tilted></feature>
            <threshold>1.2609950499609113e-003</threshold>
            <left_val>0.0539102703332901</left_val>
            <right_val>-0.4234446883201599</right_val></_></_>
        <_>
          <_>
            <feature>
              <rects>
                <_>
                  1 1 10 4 -1.</_>
                <_>
                  1 1 5 2 2.</_>
                <_>
                  6 3 5 2 2.</_></rects>
              <tilted>0</tilted></feature>
            <threshold>-0.0102881202474236</threshold>
            <left_val>0.2461404949426651</left_val>
            <right_val>-0.1360403001308441</right_val></_></_>
        <_>
          <_>
            <feature>
              <rects>
                <_>
                  16 4 4 7 -1.</_>
                <_>
                  16 4 2 7 2.</_></rects>
              <tilted>0</tilted></feature>
            <threshold>0.0174701996147633</threshold>
            <left_val>-0.0565993003547192</left_val>
            <right_val>0.2484581023454666</right_val></_></_>
        <_>
          <_>
            <feature>
              <rects>
                <_>
                  0 4 4 7 -1.</_>
                <_>
                  2 4 2 7 2.</_></rects>
              <tilted>0</tilted></feature>
            <threshold>-0.0101751396432519</threshold>
            <left_val>0.2541837096214294</left_val>
            <right_val>-0.1383267939090729</right_val></_></_>
        <_>
          <_>
            <feature>
              <rects>
                <_>
                  15 0 3 14 -1.</_>
                <_>
                  16 0 1 14 3.</_></rects>
              <tilted>0</tilted></feature>
            <threshold>0.0270757898688316</threshold>
            <left_val>0.0341690704226494</left_val>
            <right_val>-0.6154847741127014</right_val></_></_>
        <_>
          <_>
            <feature>
              <rects>
                <_>
                  0 1 1 3 -1.</_>
                <_>
                  0 2 1 1 3.</_></rects>
              <tilted>0</tilted></feature>
            <threshold>-2.7052040677517653e-003</threshold>
            <left_val>-0.6306102871894836</left_val>
            <right_val>0.0540474094450474</right_val></_></_>
        <_>
          <_>
            <feature>
              <rects>
                <_>
                  13 0 3 15 -1.</_>
                <_>
                  14 0 1 15 3.</_></rects>
              <tilted>0</tilted></feature>
            <threshold>0.0287531893700361</threshold>
            <left_val>0.0249336306005716</left_val>
            <right_val>-0.7117577195167542</right_val></_></_>
        <_>
          <_>
            <feature>
              <rects>
                <_>
                  4 0 3 16 -1.</_>
                <_>
                  5 0 1 16 3.</_></rects>
              <tilted>0</tilted></feature>
            <threshold>0.0277515202760696</threshold>
            <left_val>0.0395033918321133</left_val>
            <right_val>-0.8056545257568359</right_val></_></_>
        <_>
          <_>
            <feature>
              <rects>
                <_>
                  19 10 1 3 -1.</_>
                <_>
                  19 11 1 1 3.</_></rects>
              <tilted>0</tilted></feature>
            <threshold>6.4039058052003384e-003</threshold>
            <left_val>-2.9446429107338190e-003</left_val>
            <right_val>-0.8127353191375732</right_val></_></_>
        <_>
          <_>
            <feature>
              <rects>
                <_>
                  0 10 1 3 -1.</_>
                <_>
                  0 11 1 1 3.</_></rects>
              <tilted>0</tilted></feature>
            <threshold>8.9300988474860787e-004</threshold>
            <left_val>0.0793720632791519</left_val>
            <right_val>-0.4338931143283844</right_val></_></_>
        <_>
          <_>
            <feature>
              <rects>
                <_>
                  18 0 2 2 -1.</_>
                <_>
                  18 0 1 2 2.</_></rects>
              <tilted>1</tilted></feature>
            <threshold>-3.5416539758443832e-003</threshold>
            <left_val>-0.2112113982439041</left_val>
            <right_val>0.0606130994856358</right_val></_></_>
        <_>
          <_>
            <feature>
              <rects>
                <_>
                  5 16 2 2 -1.</_>
                <_>
                  5 16 1 2 2.</_></rects>
              <tilted>1</tilted></feature>
            <threshold>6.6292970441281796e-003</threshold>
            <left_val>0.0777251198887825</left_val>
            <right_val>-0.4271341860294342</right_val></_></_>
        <_>
          <_>
            <feature>
              <rects>
                <_>
                  16 18 1 2 -1.</_>
                <_>
                  16 19 1 1 2.</_></rects>
              <tilted>0</tilted></feature>
            <threshold>-7.0186157245188951e-005</threshold>
            <left_val>0.1444592028856278</left_val>
            <right_val>-0.1550191044807434</right_val></_></_>
        <_>
          <_>
            <feature>
              <rects>
                <_>
                  0 19 20 1 -1.</_>
                <_>
                  10 19 10 1 2.</_></rects>
              <tilted>0</tilted></feature>
            <threshold>0.0293172802776098</threshold>
            <left_val>-0.0973738282918930</left_val>
            <right_val>0.3800438940525055</right_val></_></_>
        <_>
          <_>
            <feature>
              <rects>
                <_>
                  1 5 18 2 -1.</_>
                <_>
                  1 6 18 1 2.</_></rects>
              <tilted>0</tilted></feature>
            <threshold>8.2224681973457336e-003</threshold>
            <left_val>-0.1929302066564560</left_val>
            <right_val>0.1623281985521317</right_val></_></_>
        <_>
          <_>
            <feature>
              <rects>
                <_>
                  1 16 2 3 -1.</_>
                <_>
                  1 17 2 1 3.</_></rects>
              <tilted>0</tilted></feature>
            <threshold>-1.3550070580095053e-003</threshold>
            <left_val>-0.3741484880447388</left_val>
            <right_val>0.0804931968450546</right_val></_></_>
        <_>
          <_>
            <feature>
              <rects>
                <_>
                  10 0 3 3 -1.</_>
                <_>
                  11 0 1 3 3.</_></rects>
              <tilted>0</tilted></feature>
            <threshold>7.9149389639496803e-003</threshold>
            <left_val>0.0245660692453384</left_val>
            <right_val>-0.5673810839653015</right_val></_></_>
        <_>
          <_>
            <feature>
              <rects>
                <_>
                  4 15 11 3 -1.</_>
                <_>
                  4 16 11 1 3.</_></rects>
              <tilted>0</tilted></feature>
            <threshold>7.1744718588888645e-003</threshold>
            <left_val>-0.0858686491847038</left_val>
            <right_val>0.3398652076721191</right_val></_></_>
        <_>
          <_>
            <feature>
              <rects>
                <_>
                  18 0 2 2 -1.</_>
                <_>
                  18 0 1 2 2.</_></rects>
              <tilted>1</tilted></feature>
            <threshold>8.8245049118995667e-003</threshold>
            <left_val>0.0201270002871752</left_val>
            <right_val>-0.1653012037277222</right_val></_></_>
        <_>
          <_>
            <feature>
              <rects>
                <_>
                  2 0 2 2 -1.</_>
                <_>
                  2 0 2 1 2.</_></rects>
              <tilted>1</tilted></feature>
            <threshold>-7.2643288876861334e-004</threshold>
            <left_val>-0.2150171995162964</left_val>
            <right_val>0.1341437995433807</right_val></_></_>
        <_>
          <_>
            <feature>
              <rects>
                <_>
                  4 13 12 4 -1.</_>
                <_>
                  4 14 12 2 2.</_></rects>
              <tilted>0</tilted></feature>
            <threshold>5.6904680095613003e-003</threshold>
            <left_val>-0.1287920027971268</left_val>
            <right_val>0.2254530042409897</right_val></_></_>
        <_>
          <_>
            <feature>
              <rects>
                <_>
                  0 11 6 5 -1.</_>
                <_>
                  3 11 3 5 2.</_></rects>
              <tilted>0</tilted></feature>
            <threshold>-0.0311534702777863</threshold>
            <left_val>0.2998028099536896</left_val>
            <right_val>-0.1052571013569832</right_val></_></_>
        <_>
          <_>
            <feature>
              <rects>
                <_>
                  17 16 1 2 -1.</_>
                <_>
                  17 16 1 1 2.</_></rects>
              <tilted>1</tilted></feature>
            <threshold>6.0936138033866882e-003</threshold>
            <left_val>0.0296246707439423</left_val>
            <right_val>-0.2880798876285553</right_val></_></_>
        <_>
          <_>
            <feature>
              <rects>
                <_>
                  3 16 2 1 -1.</_>
                <_>
                  3 16 1 1 2.</_></rects>
              <tilted>1</tilted></feature>
            <threshold>2.5225030258297920e-003</threshold>
            <left_val>0.1032093986868858</left_val>
            <right_val>-0.3757272064685822</right_val></_></_>
        <_>
          <_>
            <feature>
              <rects>
                <_>
                  17 16 1 2 -1.</_>
                <_>
                  17 17 1 1 2.</_></rects>
              <tilted>0</tilted></feature>
            <threshold>-5.1625629566842690e-005</threshold>
            <left_val>0.1147705987095833</left_val>
            <right_val>-0.1302167028188705</right_val></_></_>
        <_>
          <_>
            <feature>
              <rects>
                <_>
                  2 16 1 2 -1.</_>
                <_>
                  2 17 1 1 2.</_></rects>
              <tilted>0</tilted></feature>
            <threshold>-5.5807438911870122e-005</threshold>
            <left_val>0.1772090941667557</left_val>
            <right_val>-0.1870820969343185</right_val></_></_>
        <_>
          <_>
            <feature>
              <rects>
                <_>
                  0 19 20 1 -1.</_>
                <_>
                  5 19 10 1 2.</_></rects>
              <tilted>0</tilted></feature>
            <threshold>-0.0104301301762462</threshold>
            <left_val>0.2133629024028778</left_val>
            <right_val>-0.1605211943387985</right_val></_></_>
        <_>
          <_>
            <feature>
              <rects>
                <_>
                  6 19 3 1 -1.</_>
                <_>
                  7 19 1 1 3.</_></rects>
              <tilted>0</tilted></feature>
            <threshold>-1.3664689613506198e-003</threshold>
            <left_val>-0.4642024934291840</left_val>
            <right_val>0.0647099912166595</right_val></_></_>
        <_>
          <_>
            <feature>
              <rects>
                <_>
                  7 16 8 2 -1.</_>
                <_>
                  7 17 8 1 2.</_></rects>
              <tilted>0</tilted></feature>
            <threshold>5.8118440210819244e-003</threshold>
            <left_val>-0.0871348977088928</left_val>
            <right_val>0.3267346024513245</right_val></_></_>
        <_>
          <_>
            <feature>
              <rects>
                <_>
                  7 19 3 1 -1.</_>
                <_>
                  8 19 1 1 3.</_></rects>
              <tilted>0</tilted></feature>
            <threshold>-2.0008690189570189e-003</threshold>
            <left_val>-0.6319649815559387</left_val>
            <right_val>0.0471177101135254</right_val></_></_></trees>
      <stage_threshold>-1.5445230007171631</stage_threshold>
      <parent>4</parent>
      <next>-1</next></_>
    <_>
      <trees>
        <_>
          <_>
            <feature>
              <rects>
                <_>
                  6 1 8 6 -1.</_>
                <_>
                  8 1 4 6 2.</_></rects>
              <tilted>0</tilted></feature>
            <threshold>0.0275904294103384</threshold>
            <left_val>-0.2348480969667435</left_val>
            <right_val>0.5340955853462219</right_val></_></_>
        <_>
          <_>
            <feature>
              <rects>
                <_>
                  0 16 20 2 -1.</_>
                <_>
                  5 16 10 2 2.</_></rects>
              <tilted>0</tilted></feature>
            <threshold>-0.0568569414317608</threshold>
            <left_val>0.5437719225883484</left_val>
            <right_val>-0.1889840066432953</right_val></_></_>
        <_>
          <_>
            <feature>
              <rects>
                <_>
                  0 3 3 14 -1.</_>
                <_>
                  1 3 1 14 3.</_></rects>
              <tilted>0</tilted></feature>
            <threshold>6.5086372196674347e-003</threshold>
            <left_val>-0.2035184949636459</left_val>
            <right_val>0.3908731043338776</right_val></_></_>
        <_>
          <_>
            <feature>
              <rects>
                <_>
                  1 7 18 3 -1.</_>
                <_>
                  1 8 18 1 3.</_></rects>
              <tilted>0</tilted></feature>
            <threshold>-1.4312489656731486e-003</threshold>
            <left_val>-0.4902000129222870</left_val>
            <right_val>0.1516117006540299</right_val></_></_>
        <_>
          <_>
            <feature>
              <rects>
                <_>
                  6 4 8 3 -1.</_>
                <_>
                  8 4 4 3 2.</_></rects>
              <tilted>0</tilted></feature>
            <threshold>-0.0143567901104689</threshold>
            <left_val>0.5134534835815430</left_val>
            <right_val>-0.1123258993029594</right_val></_></_>
        <_>
          <_>
            <feature>
              <rects>
                <_>
                  0 6 20 3 -1.</_>
                <_>
                  0 7 20 1 3.</_></rects>
              <tilted>0</tilted></feature>
            <threshold>6.8496912717819214e-004</threshold>
            <left_val>-0.3232116103172302</left_val>
            <right_val>0.1750378012657166</right_val></_></_>
        <_>
          <_>
            <feature>
              <rects>
                <_>
                  0 0 10 1 -1.</_>
                <_>
                  5 0 5 1 2.</_></rects>
              <tilted>0</tilted></feature>
            <threshold>9.5883421599864960e-003</threshold>
            <left_val>-0.1801207959651947</left_val>
            <right_val>0.3042756021022797</right_val></_></_>
        <_>
          <_>
            <feature>
              <rects>
                <_>
                  5 3 10 10 -1.</_>
                <_>
                  5 8 10 5 2.</_></rects>
              <tilted>0</tilted></feature>
            <threshold>0.0145695498213172</threshold>
            <left_val>-0.4054467976093292</left_val>
            <right_val>0.1136977002024651</right_val></_></_>
        <_>
          <_>
            <feature>
              <rects>
                <_>
                  0 13 2 3 -1.</_>
                <_>
                  0 14 2 1 3.</_></rects>
              <tilted>0</tilted></feature>
            <threshold>2.4111079983413219e-003</threshold>
            <left_val>0.0604946389794350</left_val>
            <right_val>-0.5774366855621338</right_val></_></_>
        <_>
          <_>
            <feature>
              <rects>
                <_>
                  18 13 2 3 -1.</_>
                <_>
                  18 14 2 1 3.</_></rects>
              <tilted>0</tilted></feature>
            <threshold>-1.6380719607695937e-003</threshold>
            <left_val>-0.5348501801490784</left_val>
            <right_val>0.0865472182631493</right_val></_></_>
        <_>
          <_>
            <feature>
              <rects>
                <_>
                  0 13 2 3 -1.</_>
                <_>
                  0 14 2 1 3.</_></rects>
              <tilted>0</tilted></feature>
            <threshold>-1.5459180576726794e-003</threshold>
            <left_val>-0.5020915269851685</left_val>
            <right_val>0.0958882272243500</right_val></_></_>
        <_>
          <_>
            <feature>
              <rects>
                <_>
                  16 4 4 8 -1.</_>
                <_>
                  18 4 2 4 2.</_>
                <_>
                  16 8 2 4 2.</_></rects>
              <tilted>0</tilted></feature>
            <threshold>9.2687420547008514e-003</threshold>
            <left_val>-0.1318006962537766</left_val>
            <right_val>0.2904564142227173</right_val></_></_>
        <_>
          <_>
            <feature>
              <rects>
                <_>
                  0 4 2 14 -1.</_>
                <_>
                  1 4 1 14 2.</_></rects>
              <tilted>0</tilted></feature>
            <threshold>-0.0122457901015878</threshold>
            <left_val>0.4822942018508911</left_val>
            <right_val>-0.1057590022683144</right_val></_></_>
        <_>
          <_>
            <feature>
              <rects>
                <_>
                  14 0 6 17 -1.</_>
                <_>
                  16 0 2 17 3.</_></rects>
              <tilted>0</tilted></feature>
            <threshold>0.0168595593422651</threshold>
            <left_val>-0.1299563050270081</left_val>
            <right_val>0.2450789958238602</right_val></_></_>
        <_>
          <_>
            <feature>
              <rects>
                <_>
                  0 0 6 17 -1.</_>
                <_>
                  2 0 2 17 3.</_></rects>
              <tilted>0</tilted></feature>
            <threshold>0.0161089096218348</threshold>
            <left_val>-0.1673664003610611</left_val>
            <right_val>0.2707518041133881</right_val></_></_>
        <_>
          <_>
            <feature>
              <rects>
                <_>
                  4 12 12 5 -1.</_>
                <_>
                  7 12 6 5 2.</_></rects>
              <tilted>0</tilted></feature>
            <threshold>0.0132868401706219</threshold>
            <left_val>-0.1460326015949249</left_val>
            <right_val>0.2855060100555420</right_val></_></_>
        <_>
          <_>
            <feature>
              <rects>
                <_>
                  0 11 20 3 -1.</_>
                <_>
                  5 11 10 3 2.</_></rects>
              <tilted>0</tilted></feature>
            <threshold>-0.0161362309008837</threshold>
            <left_val>0.2277384996414185</left_val>
            <right_val>-0.1970794051885605</right_val></_></_>
        <_>
          <_>
            <feature>
              <rects>
                <_>
                  16 4 4 8 -1.</_>
                <_>
                  18 4 2 4 2.</_>
                <_>
                  16 8 2 4 2.</_></rects>
              <tilted>0</tilted></feature>
            <threshold>-0.0102787800133228</threshold>
            <left_val>0.3132654130458832</left_val>
            <right_val>-0.0824624896049500</right_val></_></_>
        <_>
          <_>
            <feature>
              <rects>
                <_>
                  0 4 4 8 -1.</_>
                <_>
                  0 4 2 4 2.</_>
                <_>
                  2 8 2 4 2.</_></rects>
              <tilted>0</tilted></feature>
            <threshold>6.3211200758814812e-003</threshold>
            <left_val>-0.1650000959634781</left_val>
            <right_val>0.2406422048807144</right_val></_></_>
        <_>
          <_>
            <feature>
              <rects>
                <_>
                  19 7 1 3 -1.</_>
                <_>
                  19 8 1 1 3.</_></rects>
              <tilted>0</tilted></feature>
            <threshold>-1.1458570370450616e-003</threshold>
            <left_val>-0.4759545028209686</left_val>
            <right_val>0.0688876137137413</right_val></_></_>
        <_>
          <_>
            <feature>
              <rects>
                <_>
                  0 7 1 3 -1.</_>
                <_>
                  0 8 1 1 3.</_></rects>
              <tilted>0</tilted></feature>
            <threshold>-4.6618600026704371e-004</threshold>
            <left_val>-0.3456631898880005</left_val>
            <right_val>0.0998041927814484</right_val></_></_>
        <_>
          <_>
            <feature>
              <rects>
                <_>
                  19 7 1 3 -1.</_>
                <_>
                  19 8 1 1 3.</_></rects>
              <tilted>0</tilted></feature>
            <threshold>1.3590559829026461e-003</threshold>
            <left_val>0.0863685831427574</left_val>
            <right_val>-0.3484278917312622</right_val></_></_>
        <_>
          <_>
            <feature>
              <rects>
                <_>
                  0 7 1 3 -1.</_>
                <_>
                  0 8 1 1 3.</_></rects>
              <tilted>0</tilted></feature>
            <threshold>1.2402869760990143e-003</threshold>
            <left_val>0.0996049568057060</left_val>
            <right_val>-0.4130975008010864</right_val></_></_>
        <_>
          <_>
            <feature>
              <rects>
                <_>
                  11 9 3 10 -1.</_>
                <_>
                  11 14 3 5 2.</_></rects>
              <tilted>0</tilted></feature>
            <threshold>-6.0644508339464664e-003</threshold>
            <left_val>0.1204536035656929</left_val>
            <right_val>-0.2948459088802338</right_val></_></_>
        <_>
          <_>
            <feature>
              <rects>
                <_>
                  3 5 14 9 -1.</_>
                <_>
                  10 5 7 9 2.</_></rects>
              <tilted>0</tilted></feature>
            <threshold>0.1802791953086853</threshold>
            <left_val>0.0444641299545765</left_val>
            <right_val>-0.6124889254570007</right_val></_></_>
        <_>
          <_>
            <feature>
              <rects>
                <_>
                  10 4 2 4 -1.</_>
                <_>
                  10 4 1 4 2.</_></rects>
              <tilted>0</tilted></feature>
            <threshold>-4.1511249728500843e-003</threshold>
            <left_val>0.2931872904300690</left_val>
            <right_val>-0.0595345906913280</right_val></_></_>
        <_>
          <_>
            <feature>
              <rects>
                <_>
                  8 4 2 4 -1.</_>
                <_>
                  9 4 1 4 2.</_></rects>
              <tilted>0</tilted></feature>
            <threshold>3.4888780210167170e-003</threshold>
            <left_val>-0.1073618009686470</left_val>
            <right_val>0.3200528919696808</right_val></_></_>
        <_>
          <_>
            <feature>
              <rects>
                <_>
                  7 2 12 6 -1.</_>
                <_>
                  10 2 6 6 2.</_></rects>
              <tilted>0</tilted></feature>
            <threshold>-0.0339828506112099</threshold>
            <left_val>0.2073955982923508</left_val>
