<?xml version="1.0"?>
<opencv_storage>
<myhaar type_id="opencv-haar-classifier">
  <size>
    24 48</size>
  <stages>
    <_>
      <trees>
        <_>
          <_>
            <feature>
              <rects>
                <_>
                  0 21 16 24 -1.</_>
                <_>
                  4 21 8 24 2.</_></rects>
              <tilted>0</tilted></feature>
            <threshold>-0.0673224925994873</threshold>
            <left_val>0.7596144080162048</left_val>
            <right_val>-0.5318738818168640</right_val></_></_>
        <_>
          <_>
            <feature>
              <rects>
                <_>
                  7 11 8 31 -1.</_>
                <_>
                  9 11 4 31 2.</_></rects>
              <tilted>0</tilted></feature>
            <threshold>-0.0374239012598991</threshold>
            <left_val>0.5947784781455994</left_val>
            <right_val>-0.1151404976844788</right_val></_></_>
        <_>
          <_>
            <feature>
              <rects>
                <_>
                  1 10 8 27 -1.</_>
                <_>
                  3 10 4 27 2.</_></rects>
              <tilted>0</tilted></feature>
            <threshold>-0.0217801108956337</threshold>
            <left_val>0.6427823901176453</left_val>
            <right_val>-0.2021891027688980</right_val></_></_>
        <_>
          <_>
            <feature>
              <rects>
                <_>
                  0 6 16 25 -1.</_>
                <_>
                  4 6 8 25 2.</_></rects>
              <tilted>0</tilted></feature>
            <threshold>0.0932310074567795</threshold>
            <left_val>-0.1883236020803452</left_val>
            <right_val>0.8081523180007935</right_val></_></_>
        <_>
          <_>
            <feature>
              <rects>
                <_>
                  2 4 12 10 -1.</_>
                <_>
                  6 4 4 10 3.</_></rects>
              <tilted>0</tilted></feature>
            <threshold>-0.0228335298597813</threshold>
            <left_val>0.5757328271865845</left_val>
            <right_val>-0.2495522052049637</right_val></_></_>
        <_>
          <_>
            <feature>
              <rects>
                <_>
                  8 1 6 9 -1.</_>
                <_>
                  8 1 3 9 2.</_></rects>
              <tilted>0</tilted></feature>
            <threshold>7.1048079989850521e-003</threshold>
            <left_val>-0.1797284930944443</left_val>
            <right_val>0.4392996132373810</right_val></_></_>
        <_>
          <_>
            <feature>
              <rects>
                <_>
                  0 15 13 32 -1.</_>
                <_>
                  0 31 13 16 2.</_></rects>
              <tilted>0</tilted></feature>
            <threshold>-0.0558524690568447</threshold>
            <left_val>-0.3228178024291992</left_val>
            <right_val>0.3205300867557526</right_val></_></_>
        <_>
          <_>
            <feature>
              <rects>
                <_>
                  8 14 6 5 -1.</_>
                <_>
                  8 14 3 5 2.</_></rects>
              <tilted>0</tilted></feature>
            <threshold>0.0126066897064447</threshold>
            <left_val>-0.0491980910301209</left_val>
            <right_val>0.3173871040344238</right_val></_></_>
        <_>
          <_>
            <feature>
              <rects>
                <_>
                  4 5 6 1 -1.</_>
                <_>
                  4 5 3 1 2.</_></rects>
              <tilted>1</tilted></feature>
            <threshold>-3.9792689494788647e-003</threshold>
            <left_val>0.5325034260749817</left_val>
            <right_val>-0.1704439073801041</right_val></_></_>
        <_>
          <_>
            <feature>
              <rects>
                <_>
                  7 6 2 2 -1.</_>
                <_>
                  7 7 2 1 2.</_></rects>
              <tilted>0</tilted></feature>
            <threshold>-4.8875052016228437e-004</threshold>
            <left_val>0.5113893747329712</left_val>
            <right_val>-0.1822189986705780</right_val></_></_></trees>
      <stage_threshold>-1.3662019968032837</stage_threshold>
      <parent>-1</parent>
      <next>-1</next></_>
    <_>
      <trees>
        <_>
          <_>
            <feature>
              <rects>
                <_>
                  0 24 16 20 -1.</_>
                <_>
                  4 24 8 20 2.</_></rects>
              <tilted>0</tilted></feature>
            <threshold>-0.1118531003594399</threshold>
            <left_val>0.6639984846115112</left_val>
            <right_val>-0.3933283984661102</right_val></_></_>
        <_>
          <_>
            <feature>
              <rects>
                <_>
                  3 7 12 12 -1.</_>
                <_>
                  3 13 12 6 2.</_></rects>
              <tilted>0</tilted></feature>
            <threshold>-0.0219657197594643</threshold>
            <left_val>0.3314546048641205</left_val>
            <right_val>-0.2633695006370544</right_val></_></_>
        <_>
          <_>
            <feature>
              <rects>
                <_>
                  1 11 8 34 -1.</_>
                <_>
                  1 11 4 17 2.</_>
                <_>
                  5 28 4 17 2.</_></rects>
              <tilted>0</tilted></feature>
            <threshold>-0.0823378115892410</threshold>
            <left_val>0.5392389893531799</left_val>
            <right_val>-0.1095106005668640</right_val></_></_>
        <_>
          <_>
            <feature>
              <rects>
                <_>
                  5 37 6 9 -1.</_>
                <_>
                  7 37 2 9 3.</_></rects>
              <tilted>0</tilted></feature>
            <threshold>0.0134132597595453</threshold>
            <left_val>-0.1581971049308777</left_val>
            <right_val>0.3926006853580475</right_val></_></_>
        <_>
          <_>
            <feature>
              <rects>
                <_>
                  3 3 9 7 -1.</_>
                <_>
                  6 3 3 7 3.</_></rects>
              <tilted>0</tilted></feature>
            <threshold>-0.0229236297309399</threshold>
            <left_val>0.3844596147537231</left_val>
            <right_val>-0.1233204007148743</right_val></_></_>
        <_>
          <_>
            <feature>
              <rects>
                <_>
                  9 4 4 4 -1.</_>
                <_>
                  9 4 4 2 2.</_></rects>
              <tilted>1</tilted></feature>
            <threshold>-0.0140729499980807</threshold>
            <left_val>0.3653197884559631</left_val>
            <right_val>-0.0684127733111382</right_val></_></_>
        <_>
          <_>
            <feature>
              <rects>
                <_>
                  3 0 8 48 -1.</_>
                <_>
                  3 12 8 24 2.</_></rects>
              <tilted>0</tilted></feature>
            <threshold>-0.1518947929143906</threshold>
            <left_val>0.3263871967792511</left_val>
            <right_val>-0.1487412005662918</right_val></_></_>
        <_>
          <_>
            <feature>
              <rects>
                <_>
                  9 4 4 4 -1.</_>
                <_>
                  9 4 4 2 2.</_></rects>
              <tilted>1</tilted></feature>
            <threshold>0.0172703601419926</threshold>
            <left_val>-0.0382798910140991</left_val>
            <right_val>0.2397350966930389</right_val></_></_>
        <_>
          <_>
            <feature>
              <rects>
                <_>
                  7 4 4 6 -1.</_>
                <_>
                  7 4 2 6 2.</_></rects>
              <tilted>1</tilted></feature>
            <threshold>-0.0228064302355051</threshold>
            <left_val>0.6414821743965149</left_val>
            <right_val>-0.1004844978451729</right_val></_></_>
        <_>
          <_>
            <feature>
              <rects>
                <_>
                  7 18 2 2 -1.</_>
                <_>
                  8 18 1 1 2.</_>
                <_>
                  7 19 1 1 2.</_></rects>
              <tilted>0</tilted></feature>
            <threshold>6.3370121642947197e-004</threshold>
            <left_val>0.1132405996322632</left_val>
            <right_val>-0.5250530838966370</right_val></_></_>
        <_>
          <_>
            <feature>
              <rects>
                <_>
                  1 14 4 23 -1.</_>
                <_>
                  2 14 2 23 2.</_></rects>
              <tilted>0</tilted></feature>
            <threshold>-0.0154199898242950</threshold>
            <left_val>0.5545449256896973</left_val>
            <right_val>-0.0938369482755661</right_val></_></_>
        <_>
          <_>
            <feature>
              <rects>
                <_>
                  8 15 2 3 -1.</_>
                <_>
                  8 16 2 1 3.</_></rects>
              <tilted>0</tilted></feature>
            <threshold>1.5668519772589207e-003</threshold>
            <left_val>0.0806263089179993</left_val>
            <right_val>-0.4547837972640991</right_val></_></_>
        <_>
          <_>
            <feature>
              <rects>
                <_>
                  2 15 11 3 -1.</_>
                <_>
                  2 16 11 1 3.</_></rects>
              <tilted>0</tilted></feature>
            <threshold>-4.0972298011183739e-003</threshold>
            <left_val>-0.4672611951828003</left_val>
            <right_val>0.0858411416411400</right_val></_></_>
        <_>
          <_>
            <feature>
              <rects>
                <_>
                  6 24 4 21 -1.</_>
                <_>
                  7 24 2 21 2.</_></rects>
              <tilted>0</tilted></feature>
            <threshold>-7.2569698095321655e-003</threshold>
            <left_val>0.3607695102691650</left_val>
            <right_val>-0.1365707963705063</right_val></_></_>
        <_>
          <_>
            <feature>
              <rects>
                <_>
                  0 35 4 2 -1.</_>
                <_>
                  0 35 2 1 2.</_>
                <_>
                  2 36 2 1 2.</_></rects>
              <tilted>0</tilted></feature>
            <threshold>-2.5162049569189548e-003</threshold>
            <left_val>-0.8295326232910156</left_val>
            <right_val>0.0564445182681084</right_val></_></_>
        <_>
          <_>
            <feature>
              <rects>
                <_>
                  13 10 2 38 -1.</_>
                <_>
                  14 10 1 19 2.</_>
                <_>
                  13 29 1 19 2.</_></rects>
              <tilted>0</tilted></feature>
            <threshold>-0.0161006599664688</threshold>
            <left_val>0.3892545104026794</left_val>
            <right_val>-0.0581045597791672</right_val></_></_>
        <_>
          <_>
            <feature>
              <rects>
                <_>
                  0 20 4 28 -1.</_>
                <_>
                  0 20 2 14 2.</_>
                <_>
                  2 34 2 14 2.</_></rects>
              <tilted>0</tilted></feature>
            <threshold>-0.0164555199444294</threshold>
            <left_val>0.3833136856555939</left_val>
            <right_val>-0.0976302474737167</right_val></_></_>
        <_>
          <_>
            <feature>
              <rects>
                <_>
                  1 37 14 2 -1.</_>
                <_>
                  8 37 7 1 2.</_>
                <_>
                  1 38 7 1 2.</_></rects>
              <tilted>0</tilted></feature>
            <threshold>-2.7485489845275879e-003</threshold>
            <left_val>-0.4473471045494080</left_val>
            <right_val>0.0900217220187187</right_val></_></_>
        <_>
          <_>
            <feature>
              <rects>
                <_>
                  3 37 10 2 -1.</_>
                <_>
                  3 37 5 1 2.</_>
                <_>
                  8 38 5 1 2.</_></rects>
              <tilted>0</tilted></feature>
            <threshold>-2.2494979202747345e-003</threshold>
            <left_val>-0.4581801891326904</left_val>
            <right_val>0.0834484994411469</right_val></_></_>
        <_>
          <_>
            <feature>
              <rects>
                <_>
                  9 36 1 9 -1.</_>
                <_>
                  6 39 1 3 3.</_></rects>
              <tilted>1</tilted></feature>
            <threshold>-3.8246118929237127e-003</threshold>
            <left_val>0.1295444071292877</left_val>
            <right_val>-0.0793504193425179</right_val></_></_>
        <_>
          <_>
            <feature>
              <rects>
                <_>
                  7 35 8 1 -1.</_>
                <_>
                  9 37 4 1 2.</_></rects>
              <tilted>1</tilted></feature>
            <threshold>-1.7160020070150495e-003</threshold>
            <left_val>0.2444171011447907</left_val>
            <right_val>-0.1504622995853424</right_val></_></_>
        <_>
          <_>
            <feature>
              <rects>
                <_>
                  4 0 8 4 -1.</_>
                <_>
                  4 2 8 2 2.</_></rects>
              <tilted>0</tilted></feature>
            <threshold>-0.0136073799803853</threshold>
            <left_val>0.4453962147235870</left_val>
            <right_val>-0.0800051391124725</right_val></_></_>
        <_>
          <_>
            <feature>
              <rects>
                <_>
                  5 15 2 3 -1.</_>
                <_>
                  5 16 2 1 3.</_></rects>
              <tilted>0</tilted></feature>
            <threshold>5.1701779011636972e-004</threshold>
            <left_val>0.1084778010845184</left_val>
            <right_val>-0.3275947868824005</right_val></_></_>
        <_>
          <_>
            <feature>
              <rects>
                <_>
                  8 0 4 3 -1.</_>
                <_>
                  9 1 2 3 2.</_></rects>
              <tilted>1</tilted></feature>
            <threshold>5.6973011232912540e-003</threshold>
            <left_val>-0.0764141306281090</left_val>
            <right_val>0.3471448123455048</right_val></_></_>
        <_>
          <_>
            <feature>
              <rects>
                <_>
                  4 2 8 32 -1.</_>
                <_>
                  4 10 8 16 2.</_></rects>
              <tilted>0</tilted></feature>
            <threshold>0.1306294947862625</threshold>
            <left_val>-0.0611064285039902</left_val>
            <right_val>0.5460138916969299</right_val></_></_>
        <_>
          <_>
            <feature>
              <rects>
                <_>
                  8 6 3 4 -1.</_>
                <_>
                  8 8 3 2 2.</_></rects>
              <tilted>0</tilted></feature>
            <threshold>-1.4340640045702457e-003</threshold>
            <left_val>0.2027138024568558</left_val>
            <right_val>-0.1126450970768929</right_val></_></_>
        <_>
          <_>
            <feature>
              <rects>
                <_>
                  3 12 6 31 -1.</_>
                <_>
                  5 12 2 31 3.</_></rects>
              <tilted>0</tilted></feature>
            <threshold>-0.0458072312176228</threshold>
            <left_val>0.4209946095943451</left_val>
            <right_val>-0.0915128365159035</right_val></_></_>
        <_>
          <_>
            <feature>
              <rects>
                <_>
                  8 1 6 7 -1.</_>
                <_>
                  10 3 2 7 3.</_></rects>
              <tilted>1</tilted></feature>
            <threshold>-0.0119413202628493</threshold>
            <left_val>0.2189286053180695</left_val>
            <right_val>-0.1108070015907288</right_val></_></_>
        <_>
          <_>
            <feature>
              <rects>
                <_>
                  8 1 7 6 -1.</_>
                <_>
                  6 3 7 2 3.</_></rects>
              <tilted>1</tilted></feature>
            <threshold>0.0169686190783978</threshold>
            <left_val>-0.1194232031702995</left_val>
            <right_val>0.3668824136257172</right_val></_></_>
        <_>
          <_>
            <feature>
              <rects>
                <_>
                  9 4 7 16 -1.</_>
                <_>
                  9 8 7 8 2.</_></rects>
              <tilted>0</tilted></feature>
            <threshold>-0.0269690006971359</threshold>
            <left_val>0.1519425064325333</left_val>
            <right_val>-0.0322133898735046</right_val></_></_>
        <_>
          <_>
            <feature>
              <rects>
                <_>
                  0 4 7 16 -1.</_>
                <_>
                  0 8 7 8 2.</_></rects>
              <tilted>0</tilted></feature>
            <threshold>6.0027618892490864e-003</threshold>
            <left_val>-0.1568143963813782</left_val>
            <right_val>0.2493724972009659</right_val></_></_>
        <_>
          <_>
            <feature>
              <rects>
                <_>
                  13 11 2 3 -1.</_>
                <_>
                  13 12 2 1 3.</_></rects>
              <tilted>0</tilted></feature>
            <threshold>-9.9791132379323244e-004</threshold>
            <left_val>-0.3297776877880096</left_val>
            <right_val>0.0775321274995804</right_val></_></_>
        <_>
          <_>
            <feature>
              <rects>
                <_>
                  1 11 2 3 -1.</_>
                <_>
                  1 12 2 1 3.</_></rects>
              <tilted>0</tilted></feature>
            <threshold>-1.6997440252453089e-003</threshold>
            <left_val>-0.4889830052852631</left_val>
            <right_val>0.0658076405525208</right_val></_></_>
        <_>
          <_>
            <feature>
              <rects>
                <_>
                  8 40 6 3 -1.</_>
                <_>
                  10 40 2 3 3.</_></rects>
              <tilted>0</tilted></feature>
            <threshold>-5.7573420926928520e-003</threshold>
            <left_val>0.2669675946235657</left_val>
            <right_val>-0.0688736587762833</right_val></_></_>
        <_>
          <_>
            <feature>
              <rects>
                <_>
                  5 36 6 5 -1.</_>
                <_>
                  7 36 2 5 3.</_></rects>
              <tilted>0</tilted></feature>
            <threshold>-0.0116584701463580</threshold>
            <left_val>0.4133904874324799</left_val>
            <right_val>-0.0902666300535202</right_val></_></_>
        <_>
          <_>
            <feature>
              <rects>
                <_>
                  12 39 2 2 -1.</_>
                <_>
                  13 39 1 1 2.</_>
                <_>
                  12 40 1 1 2.</_></rects>
              <tilted>0</tilted></feature>
            <threshold>-7.8724871855229139e-004</threshold>
            <left_val>-0.4404974877834320</left_val>
            <right_val>0.0505280904471874</right_val></_></_>
        <_>
          <_>
            <feature>
              <rects>
                <_>
                  7 4 1 8 -1.</_>
                <_>
                  7 8 1 4 2.</_></rects>
              <tilted>0</tilted></feature>
            <threshold>-2.2022430785000324e-003</threshold>
            <left_val>0.2455624043941498</left_val>
            <right_val>-0.1333755999803543</right_val></_></_>
        <_>
          <_>
            <feature>
              <rects>
                <_>
                  8 1 8 12 -1.</_>
                <_>
                  12 1 4 6 2.</_>
                <_>
                  8 7 4 6 2.</_></rects>
              <tilted>0</tilted></feature>
            <threshold>0.0130784800276160</threshold>
            <left_val>-0.0791975185275078</left_val>
            <right_val>0.2018720060586929</right_val></_></_>
        <_>
          <_>
            <feature>
              <rects>
                <_>
                  2 39 2 2 -1.</_>
                <_>
                  2 39 1 1 2.</_>
                <_>
                  3 40 1 1 2.</_></rects>
              <tilted>0</tilted></feature>
            <threshold>-3.6747410194948316e-004</threshold>
            <left_val>-0.3913984000682831</left_val>
            <right_val>0.0848214030265808</right_val></_></_>
        <_>
          <_>
            <feature>
              <rects>
                <_>
                  10 2 5 4 -1.</_>
                <_>
                  9 3 5 2 2.</_></rects>
              <tilted>1</tilted></feature>
            <threshold>-0.0100851003080606</threshold>
            <left_val>0.2509357929229736</left_val>
            <right_val>-0.0438204109668732</right_val></_></_></trees>
      <stage_threshold>-1.3112759590148926</stage_threshold>
      <parent>0</parent>
      <next>-1</next></_>
    <_>
      <trees>
        <_>
          <_>
            <feature>
              <rects>
                <_>
                  0 21 16 26 -1.</_>
                <_>
                  4 21 8 26 2.</_></rects>
              <tilted>0</tilted></feature>
            <threshold>-0.1628441065549851</threshold>
            <left_val>0.5898563265800476</left_val>
            <right_val>-0.3330009877681732</right_val></_></_>
        <_>
          <_>
            <feature>
              <rects>
                <_>
                  8 1 1 4 -1.</_>
                <_>
                  8 3 1 2 2.</_></rects>
              <tilted>0</tilted></feature>
            <threshold>-6.7012477666139603e-004</threshold>
            <left_val>0.3236123025417328</left_val>
            <right_val>-0.1426389962434769</right_val></_></_>
        <_>
          <_>
            <feature>
              <rects>
                <_>
                  3 6 10 12 -1.</_>
                <_>
                  3 12 10 6 2.</_></rects>
              <tilted>0</tilted></feature>
            <threshold>-0.0255403500050306</threshold>
            <left_val>0.2607207894325256</left_val>
            <right_val>-0.2131652981042862</right_val></_></_>
        <_>
          <_>
            <feature>
              <rects>
                <_>
                  6 16 10 26 -1.</_>
                <_>
                  11 16 5 13 2.</_>
                <_>
                  6 29 5 13 2.</_></rects>
              <tilted>0</tilted></feature>
            <threshold>-0.0644777119159698</threshold>
            <left_val>0.4662058055400848</left_val>
            <right_val>-0.1730277985334396</right_val></_></_>
        <_>
          <_>
            <feature>
              <rects>
                <_>
                  5 0 4 6 -1.</_>
                <_>
                  5 0 2 3 2.</_>
                <_>
                  7 3 2 3 2.</_></rects>
              <tilted>0</tilted></feature>
            <threshold>2.1704030223190784e-003</threshold>
            <left_val>-0.1327303051948547</left_val>
            <right_val>0.3655380904674530</right_val></_></_>
        <_>
          <_>
            <feature>
              <rects>
                <_>
                  5 3 6 3 -1.</_>
                <_>
                  7 3 2 3 3.</_></rects>
              <tilted>0</tilted></feature>
            <threshold>-2.0155541133135557e-003</threshold>
            <left_val>0.2883954048156738</left_val>
            <right_val>-0.1902893930673599</right_val></_></_>
        <_>
          <_>
            <feature>
              <rects>
                <_>
                  3 3 8 2 -1.</_>
                <_>
                  5 3 4 2 2.</_></rects>
              <tilted>0</tilted></feature>
            <threshold>2.1117879077792168e-003</threshold>
            <left_val>-0.1528207957744598</left_val>
            <right_val>0.3276889026165009</right_val></_></_>
        <_>
          <_>
            <feature>
              <rects>
                <_>
                  7 1 6 8 -1.</_>
                <_>
                  9 1 2 8 3.</_></rects>
              <tilted>0</tilted></feature>
            <threshold>-4.0486338548362255e-003</threshold>
            <left_val>0.2180888950824738</left_val>
            <right_val>-0.1145834997296333</right_val></_></_>
        <_>
          <_>
            <feature>
              <rects>
                <_>
                  3 1 6 8 -1.</_>
                <_>
                  5 1 2 8 3.</_></rects>
              <tilted>0</tilted></feature>
            <threshold>-4.9655018374323845e-003</threshold>
            <left_val>0.3254382908344269</left_val>
            <right_val>-0.1883285045623779</right_val></_></_>
        <_>
          <_>
            <feature>
              <rects>
                <_>
                  6 0 6 36 -1.</_>
                <_>
                  6 9 6 18 2.</_></rects>
              <tilted>0</tilted></feature>
            <threshold>0.1858025044202805</threshold>
            <left_val>-0.0359851010143757</left_val>
            <right_val>0.7952768802642822</right_val></_></_>
        <_>
          <_>
            <feature>
              <rects>
                <_>
                  0 12 4 11 -1.</_>
                <_>
                  1 12 2 11 2.</_></rects>
              <tilted>0</tilted></feature>
            <threshold>-1.9774420652538538e-003</threshold>
            <left_val>0.2824366986751556</left_val>
            <right_val>-0.1596383005380631</right_val></_></_>
        <_>
          <_>
            <feature>
              <rects>
                <_>
                  4 2 9 36 -1.</_>
                <_>
                  4 11 9 18 2.</_></rects>
              <tilted>0</tilted></feature>
            <threshold>-0.0886811017990112</threshold>
            <left_val>0.2659107148647308</left_val>
            <right_val>-0.1499799042940140</right_val></_></_>
        <_>
          <_>
            <feature>
              <rects>
                <_>
                  0 1 2 19 -1.</_>
                <_>
                  1 1 1 19 2.</_></rects>
              <tilted>0</tilted></feature>
            <threshold>1.5307390131056309e-003</threshold>
            <left_val>-0.1486853063106537</left_val>
            <right_val>0.3213823139667511</right_val></_></_>
        <_>
          <_>
            <feature>
              <rects>
                <_>
                  1 45 15 3 -1.</_>
                <_>
                  6 46 5 1 9.</_></rects>
              <tilted>0</tilted></feature>
            <threshold>-0.0191671494394541</threshold>
            <left_val>0.2623304128646851</left_val>
            <right_val>-0.1121049970388413</right_val></_></_>
        <_>
          <_>
            <feature>
              <rects>
                <_>
                  4 37 8 4 -1.</_>
                <_>
                  6 37 4 4 2.</_></rects>
              <tilted>0</tilted></feature>
            <threshold>4.7020828351378441e-003</threshold>
            <left_val>-0.1394927054643631</left_val>
            <right_val>0.3437862098217011</right_val></_></_>
        <_>
          <_>
            <feature>
              <rects>
                <_>
                  4 18 9 30 -1.</_>
                <_>
                  7 28 3 10 9.</_></rects>
              <tilted>0</tilted></feature>
            <threshold>-0.0916686207056046</threshold>
            <left_val>0.2751848101615906</left_val>
            <right_val>-0.1867333054542542</right_val></_></_>
        <_>
          <_>
            <feature>
              <rects>
                <_>
                  1 13 13 3 -1.</_>
                <_>
                  1 14 13 1 3.</_></rects>
              <tilted>0</tilted></feature>
            <threshold>-7.6459380798041821e-003</threshold>
            <left_val>-0.7113131284713745</left_val>
            <right_val>0.0559225901961327</right_val></_></_>
        <_>
          <_>
            <feature>
              <rects>
                <_>
                  10 1 3 8 -1.</_>
                <_>
                  11 2 1 8 3.</_></rects>
              <tilted>1</tilted></feature>
            <threshold>5.2434769459068775e-003</threshold>
            <left_val>-0.1046983003616333</left_val>
            <right_val>0.3184767961502075</right_val></_></_>
        <_>
          <_>
            <feature>
              <rects>
                <_>
                  7 3 4 7 -1.</_>
                <_>
                  8 4 2 7 2.</_></rects>
              <tilted>1</tilted></feature>
            <threshold>-7.8330822288990021e-003</threshold>
            <left_val>0.4400413930416107</left_val>
            <right_val>-0.1278451979160309</right_val></_></_>
        <_>
          <_>
            <feature>
              <rects>
                <_>
                  12 8 4 12 -1.</_>
                <_>
                  14 8 2 6 2.</_>
                <_>
                  12 14 2 6 2.</_></rects>
              <tilted>0</tilted></feature>
            <threshold>-7.6073440723121166e-003</threshold>
            <left_val>0.3099941015243530</left_val>
            <right_val>-0.0830713436007500</right_val></_></_>
        <_>
          <_>
            <feature>
              <rects>
                <_>
                  3 13 6 34 -1.</_>
                <_>
                  3 13 3 17 2.</_>
                <_>
                  6 30 3 17 2.</_></rects>
              <tilted>0</tilted></feature>
            <threshold>-0.0459182597696781</threshold>
            <left_val>0.4287171959877014</left_val>
            <right_val>-0.0914414227008820</right_val></_></_>
        <_>
          <_>
            <feature>
              <rects>
                <_>
                  0 19 16 5 -1.</_>
                <_>
                  4 19 8 5 2.</_></rects>
              <tilted>0</tilted></feature>
            <threshold>-0.0483792684972286</threshold>
            <left_val>0.4869014024734497</left_val>
            <right_val>-0.0899914130568504</right_val></_></_>
        <_>
          <_>
            <feature>
              <rects>
                <_>
                  6 45 2 1 -1.</_>
                <_>
                  6 45 1 1 2.</_></rects>
              <tilted>1</tilted></feature>
            <threshold>-2.6011419322458096e-005</threshold>
            <left_val>0.2184686064720154</left_val>
            <right_val>-0.1920569986104965</right_val></_></_>
        <_>
          <_>
            <feature>
              <rects>
                <_>
                  10 1 3 10 -1.</_>
                <_>
                  11 2 1 10 3.</_></rects>
              <tilted>1</tilted></feature>
            <threshold>6.1733392067253590e-003</threshold>
            <left_val>-0.0533552505075932</left_val>
            <right_val>0.1821794062852860</right_val></_></_>
        <_>
          <_>
            <feature>
              <rects>
                <_>
                  6 1 10 3 -1.</_>
                <_>
                  5 2 10 1 3.</_></rects>
              <tilted>1</tilted></feature>
            <threshold>-6.5608848817646503e-003</threshold>
            <left_val>0.3504895865917206</left_val>
            <right_val>-0.1107129007577896</right_val></_></_>
        <_>
          <_>
            <feature>
              <rects>
                <_>
                  6 18 6 20 -1.</_>
                <_>
                  9 18 3 10 2.</_>
                <_>
                  6 28 3 10 2.</_></rects>
              <tilted>0</tilted></feature>
            <threshold>0.0167381297796965</threshold>
            <left_val>-0.0788485407829285</left_val>
            <right_val>0.2757023870944977</right_val></_></_>
        <_>
          <_>
            <feature>
              <rects>
                <_>
                  3 19 8 16 -1.</_>
                <_>
                  3 19 4 8 2.</_>
                <_>
                  7 27 4 8 2.</_></rects>
              <tilted>0</tilted></feature>
            <threshold>0.0110001498833299</threshold>
            <left_val>-0.1420437991619110</left_val>
            <right_val>0.3246191143989563</right_val></_></_>
        <_>
          <_>
            <feature>
              <rects>
                <_>
                  5 18 10 9 -1.</_>
                <_>
                  5 18 5 9 2.</_></rects>
              <tilted>0</tilted></feature>
            <threshold>0.0112008703872561</threshold>
            <left_val>-0.0997194722294807</left_val>
            <right_val>0.1839860975742340</right_val></_></_>
        <_>
          <_>
            <feature>
              <rects>
                <_>
                  2 6 5 32 -1.</_>
                <_>
                  2 14 5 16 2.</_></rects>
              <tilted>0</tilted></feature>
            <threshold>-0.0171268098056316</threshold>
            <left_val>0.2161549925804138</left_val>
            <right_val>-0.2291529029607773</right_val></_></_>
        <_>
          <_>
            <feature>
              <rects>
                <_>
                  4 31 9 1 -1.</_>
                <_>
                  7 31 3 1 3.</_></rects>
              <tilted>0</tilted></feature>
            <threshold>-9.1533130034804344e-004</threshold>
            <left_val>0.1622073054313660</left_val>
            <right_val>-0.1254027038812637</right_val></_></_>
        <_>
          <_>
            <feature>
              <rects>
                <_>
                  0 23 14 2 -1.</_>
                <_>
                  7 23 7 2 2.</_></rects>
              <tilted>0</tilted></feature>
            <threshold>3.5981619730591774e-003</threshold>
            <left_val>-0.1499979048967362</left_val>
            <right_val>0.2999041974544525</right_val></_></_>
        <_>
          <_>
            <feature>
              <rects>
                <_>
                  4 37 12 11 -1.</_>
                <_>
                  8 37 4 11 3.</_></rects>
              <tilted>0</tilted></feature>
            <threshold>0.0132901398465037</threshold>
            <left_val>-0.1192606016993523</left_val>
            <right_val>0.2192762941122055</right_val></_></_>
        <_>
          <_>
            <feature>
              <rects>
                <_>
                  1 40 8 5 -1.</_>
                <_>
                  5 40 4 5 2.</_></rects>
              <tilted>0</tilted></feature>
            <threshold>-5.5510499514639378e-003</threshold>
            <left_val>0.2655934095382690</left_val>
            <right_val>-0.1854254007339478</right_val></_></_>
        <_>
          <_>
            <feature>
              <rects>
                <_>
                  5 39 9 6 -1.</_>
                <_>
                  8 39 3 6 3.</_></rects>
              <tilted>0</tilted></feature>
            <threshold>-4.3687270954251289e-003</threshold>
            <left_val>0.2016281038522720</left_val>
            <right_val>-0.1434147953987122</right_val></_></_>
        <_>
          <_>
            <feature>
              <rects>
                <_>
                  2 35 12 11 -1.</_>
                <_>
                  6 35 4 11 3.</_></rects>
              <tilted>0</tilted></feature>
            <threshold>0.0182733591645956</threshold>
            <left_val>-0.1626396030187607</left_val>
            <right_val>0.3760456144809723</right_val></_></_>
        <_>
          <_>
            <feature>
              <rects>
                <_>
                  5 29 9 15 -1.</_>
                <_>
                  8 34 3 5 9.</_></rects>
              <tilted>0</tilted></feature>
            <threshold>-8.9554004371166229e-003</threshold>
            <left_val>0.1063432991504669</left_val>
            <right_val>-0.1375301927328110</right_val></_></_>
        <_>
          <_>
            <feature>
              <rects>
                <_>
                  5 22 6 16 -1.</_>
                <_>
                  5 22 3 8 2.</_>
                <_>
                  8 30 3 8 2.</_></rects>
              <tilted>0</tilted></feature>
            <threshold>1.1149679776281118e-003</threshold>
            <left_val>-0.2124437987804413</left_val>
            <right_val>0.2888469099998474</right_val></_></_>
        <_>
          <_>
            <feature>
              <rects>
                <_>
                  5 5 6 6 -1.</_>
                <_>
                  5 7 6 2 3.</_></rects>
              <tilted>0</tilted></feature>
            <threshold>-2.5444820057600737e-003</threshold>
            <left_val>0.2816725969314575</left_val>
            <right_val>-0.2032672017812729</right_val></_></_>
        <_>
          <_>
            <feature>
              <rects>
                <_>
                  4 4 8 8 -1.</_>
                <_>
                  4 6 8 4 2.</_></rects>
              <tilted>0</tilted></feature>
            <threshold>6.8239117972552776e-003</threshold>
            <left_val>-0.1468240022659302</left_val>
            <right_val>0.3650914132595062</right_val></_></_>
        <_>
          <_>
            <feature>
              <rects>
                <_>
                  4 14 8 6 -1.</_>
                <_>
                  4 17 8 3 2.</_></rects>
              <tilted>0</tilted></feature>
            <threshold>-1.0854969877982512e-004</threshold>
            <left_val>0.1776144951581955</left_val>
            <right_val>-0.3045499026775360</right_val></_></_>
        <_>
          <_>
            <feature>
              <rects>
                <_>
                  6 0 4 24 -1.</_>
                <_>
                  6 6 4 12 2.</_></rects>
              <tilted>0</tilted></feature>
            <threshold>-6.7114038392901421e-003</threshold>
            <left_val>0.3006199002265930</left_val>
            <right_val>-0.1810384988784790</right_val></_></_>
        <_>
          <_>
            <feature>
              <rects>
                <_>
                  6 2 4 12 -1.</_>
                <_>
                  6 8 4 6 2.</_></rects>
              <tilted>0</tilted></feature>
            <threshold>0.0217812601476908</threshold>
            <left_val>-0.1085084006190300</left_val>
            <right_val>0.5381010174751282</right_val></_></_>
        <_>
          <_>
            <feature>
              <rects>
                <_>
                  2 24 9 9 -1.</_>
                <_>
                  5 27 3 3 9.</_></rects>
              <tilted>0</tilted></feature>
            <threshold>-8.0705816799309105e-005</threshold>
            <left_val>0.2140150070190430</left_val>
            <right_val>-0.3075968027114868</right_val></_></_>
        <_>
          <_>
            <feature>
              <rects>
                <_>
                  14 24 2 5 -1.</_>
                <_>
                  14 24 1 5 2.</_></rects>
              <tilted>1</tilted></feature>
            <threshold>2.2525679378304631e-004</threshold>
            <left_val>-0.1407413035631180</left_val>
            <right_val>0.2236806005239487</right_val></_></_>
        <_>
          <_>
            <feature>
              <rects>
                <_>
                  3 1 10 2 -1.</_>
                <_>
                  3 1 10 1 2.</_></rects>
              <tilted>1</tilted></feature>
            <threshold>2.9230260406620800e-004</threshold>
            <left_val>-0.2737213969230652</left_val>
            <right_val>0.2279237061738968</right_val></_></_>
        <_>
          <_>
            <feature>
              <rects>
                <_>
                  9 12 4 6 -1.</_>
                <_>
                  9 14 4 2 3.</_></rects>
              <tilted>0</tilted></feature>
            <threshold>-2.0273830159567297e-004</threshold>
            <left_val>0.2129009962081909</left_val>
            <right_val>-0.2486132979393005</right_val></_></_>
        <_>
          <_>
            <feature>
              <rects>
                <_>
                  3 2 9 10 -1.</_>
                <_>
                  6 2 3 10 3.</_></rects>
              <tilted>0</tilted></feature>
            <threshold>-0.0141384396702051</threshold>
            <left_val>0.3339368104934692</left_val>
            <right_val>-0.1757352054119110</right_val></_></_>
        <_>
          <_>
            <feature>
              <rects>
                <_>
                  5 3 8 8 -1.</_>
                <_>
                  7 3 4 8 2.</_></rects>
              <tilted>0</tilted></feature>
            <threshold>6.0793692246079445e-003</threshold>
            <left_val>-0.1123998016119003</left_val>
            <right_val>0.2656134963035584</right_val></_></_>
        <_>
          <_>
            <feature>
              <rects>
                <_>
                  2 0 9 12 -1.</_>
                <_>
                  5 0 3 12 3.</_></rects>
              <tilted>0</tilted></feature>
            <threshold>5.8254399336874485e-003</threshold>
            <left_val>-0.2640712857246399</left_val>
            <right_val>0.3398491144180298</right_val></_></_>
        <_>
          <_>
            <feature>
              <rects>
                <_>
                  3 0 12 6 -1.</_>
                <_>
                  7 0 4 6 3.</_></rects>
              <tilted>0</tilted></feature>
            <threshold>-1.4500500401481986e-003</threshold>
            <left_val>0.1987489014863968</left_val>
            <right_val>-0.2768856883049011</right_val></_></_>
        <_>
          <_>
            <feature>
              <rects>
                <_>
                  0 0 9 5 -1.</_>
                <_>
                  3 0 3 5 3.</_></rects>
              <tilted>0</tilted></feature>
            <threshold>-1.4314530417323112e-003</threshold>
            <left_val>0.3770754933357239</left_val>
            <right_val>-0.2273101955652237</right_val></_></_>
        <_>
          <_>
            <feature>
              <rects>
                <_>
                  7 1 3 25 -1.</_>
                <_>
                  8 1 1 25 3.</_></rects>
              <tilted>0</tilted></feature>
            <threshold>-1.5326080028899014e-004</threshold>
            <left_val>0.1421460956335068</left_val>
            <right_val>-0.1169312968850136</right_val></_></_>
        <_>
          <_>
            <feature>
              <rects>
                <_>
                  6 1 3 25 -1.</_>
                <_>
                  7 1 1 25 3.</_></rects>
              <tilted>0</tilted></feature>
            <threshold>-1.3880190090276301e-004</threshold>
            <left_val>0.2753117084503174</left_val>
            <right_val>-0.2314959019422531</right_val></_></_>
        <_>
          <_>
            <feature>
              <rects>
                <_>
                  3 13 10 32 -1.</_>
                <_>
                  3 29 10 16 2.</_></rects>
              <tilted>0</tilted></feature>
            <threshold>-0.1736478954553604</threshold>
            <left_val>0.5689010024070740</left_val>
            <right_val>-0.0931709930300713</right_val></_></_>
        <_>
          <_>
            <feature>
              <rects>
                <_>
                  0 14 15 20 -1.</_>
                <_>
                  0 24 15 10 2.</_></rects>
              <tilted>0</tilted></feature>
            <threshold>0.1070799976587296</threshold>
            <left_val>-0.0966728180646896</left_val>
            <right_val>0.5574622750282288</right_val></_></_>
        <_>
          <_>
            <feature>
              <rects>
                <_>
                  7 7 2 30 -1.</_>
                <_>
                  7 22 2 15 2.</_></rects>
              <tilted>0</tilted></feature>
            <threshold>-5.3791790269315243e-003</threshold>
            <left_val>0.2145822942256928</left_val>
            <right_val>-0.3403379023075104</right_val></_></_>
        <_>
          <_>
            <feature>
              <rects>
                <_>
                  4 10 6 32 -1.</_>
                <_>
                  4 26 6 16 2.</_></rects>
              <tilted>0</tilted></feature>
            <threshold>0.0611745901405811</threshold>
            <left_val>-0.1418440043926239</left_val>
            <right_val>0.4509224891662598</right_val></_></_>
        <_>
          <_>
            <feature>
              <rects>
                <_>
                  3 6 10 28 -1.</_>
                <_>
                  3 20 10 14 2.</_></rects>
              <tilted>0</tilted></feature>
            <threshold>-2.4276119656860828e-003</threshold>
            <left_val>0.1550772041082382</left_val>
            <right_val>-0.3752141892910004</right_val></_></_>
        <_>
          <_>
            <feature>
              <rects>
                <_>
                  3 7 8 28 -1.</_>
                <_>
                  3 21 8 14 2.</_></rects>
              <tilted>0</tilted></feature>
            <threshold>2.0234370604157448e-003</threshold>
            <left_val>-0.1682540029287338</left_val>
            <right_val>0.3808411955833435</right_val></_></_></trees>
      <stage_threshold>-1.5767450332641602</stage_threshold>
      <parent>1</parent>
      <next>-1</next></_>
    <_>
      <trees>
        <_>
          <_>
            <feature>
              <rects>
                <_>
                  0 23 16 24 -1.</_>
                <_>
                  4 23 8 24 2.</_></rects>
              <tilted>0</tilted></feature>
            <threshold>-0.0964435636997223</threshold>
            <left_val>0.5744091272354126</left_val>
            <right_val>-0.4416446983814240</right_val></_></_>
        <_>
          <_>
            <feature>
              <rects>
                <_>
                  6 17 10 18 -1.</_>
                <_>
                  11 17 5 9 2.</_>
                <_>
                  6 26 5 9 2.</_></rects>
              <tilted>0</tilted></feature>
            <threshold>-0.0347489006817341</threshold>
            <left_val>0.3921600878238678</left_val>
            <right_val>-0.1248610019683838</right_val></_></_>
        <_>
          <_>
            <feature>
              <rects>
                <_>
                  0 0 15 48 -1.</_>
                <_>
                  5 16 5 16 9.</_></rects>
              <tilted>0</tilted></feature>
            <threshold>-0.7765036821365356</threshold>
            <left_val>0.4277538061141968</left_val>
            <right_val>-0.1303192973136902</right_val></_></_>
        <_>
          <_>
            <feature>
              <rects>
                <_>
                  9 27 4 19 -1.</_>
                <_>
                  9 27 2 19 2.</_></rects>
              <tilted>0</tilted></feature>
            <threshold>0.0109394798055291</threshold>
            <left_val>-0.1374619007110596</left_val>
            <right_val>0.3642222881317139</right_val></_></_>
        <_>
          <_>
            <feature>
              <rects>
                <_>
                  3 4 6 14 -1.</_>
                <_>
                  3 4 3 7 2.</_>
                <_>
                  6 11 3 7 2.</_></rects>
              <tilted>0</tilted></feature>
            <threshold>0.0231573991477489</threshold>
            <left_val>-0.1098250001668930</left_val>
            <right_val>0.5147628188133240</right_val></_></_>
        <_>
          <_>
            <feature>
              <rects>
                <_>
                  9 3 5 4 -1.</_>
                <_>
                  9 3 5 2 2.</_></rects>
              <tilted>1</tilted></feature>
            <threshold>0.0245114192366600</threshold>
            <left_val>-0.0878784209489822</left_val>
            <right_val>0.4286757111549377</right_val></_></_>
        <_>
          <_>
            <feature>
              <rects>
                <_>
                  8 2 4 7 -1.</_>
                <_>
                  8 2 2 7 2.</_></rects>
              <tilted>1</tilted></feature>
            <threshold>-0.0110653098672628</threshold>
            <left_val>0.4304307103157044</left_val>
            <right_val>-0.1518031954765320</right_val></_></_>
        <_>
          <_>
            <feature>
              <rects>
                <_>
                  1 14 14 2 -1.</_>
                <_>
                  1 15 14 1 2.</_></rects>
              <tilted>0</tilted></feature>
            <threshold>-6.4326552092097700e-005</threshold>
            <left_val>0.1905059069395065</left_val>
            <right_val>-0.2869262993335724</right_val></_></_>
        <_>
          <_>
            <feature>
              <rects>
                <_>
                  3 18 6 26 -1.</_>
                <_>
                  3 18 3 13 2.</_>
                <_>
                  6 31 3 13 2.</_></rects>
              <tilted>0</tilted></feature>
            <threshold>0.0333185791969299</threshold>
            <left_val>-0.0982553213834763</left_val>
            <right_val>0.5466439723968506</right_val></_></_>
        <_>
          <_>
            <feature>
              <rects>
                <_>
                  6 18 8 22 -1.</_>
                <_>
                  10 18 4 11 2.</_>
                <_>
                  6 29 4 11 2.</_></rects>
              <tilted>0</tilted></feature>
            <threshold>-0.0516126789152622</threshold>
            <left_val>0.4029015898704529</left_val>
            <right_val>-0.1018109023571014</right_val></_></_>
        <_>
          <_>
            <feature>
              <rects>
                <_>
                  2 18 10 20 -1.</_>
                <_>
                  2 18 5 10 2.</_>
                <_>
                  7 28 5 10 2.</_></rects>
              <tilted>0</tilted></feature>
            <threshold>-0.0145915802568197</threshold>
            <left_val>0.3426373004913330</left_val>
            <right_val>-0.1881062984466553</right_val></_></_>
        <_>
          <_>
            <feature>
              <rects>
                <_>
                  10 7 6 36 -1.</_>
                <_>
                  13 7 3 18 2.</_>
                <_>
                  10 25 3 18 2.</_></rects>
              <tilted>0</tilted></feature>
            <threshold>0.0433120094239712</threshold>
            <left_val>-0.1030919030308723</left_val>
            <right_val>0.5719339251518250</right_val></_></_>
        <_>
          <_>
            <feature>
              <rects>
                <_>
                  0 15 5 33 -1.</_>
                <_>
                  0 26 5 11 3.</_></rects>
              <tilted>0</tilted></feature>
            <threshold>-0.0160671807825565</threshold>
            <left_val>0.2689388096332550</left_val>
            <right_val>-0.2757112085819244</right_val></_></_>
        <_>
          <_>
            <feature>
              <rects>
                <_>
                  8 37 1 8 -1.</_>
                <_>
                  6 39 1 4 2.</_></rects>
              <tilted>1</tilted></feature>
            <threshold>-2.3563769645988941e-003</threshold>
            <left_val>0.1971226036548615</left_val>
            <right_val>-0.0804161801934242</right_val></_></_>
        <_>
          <_>
            <feature>
              <rects>
                <_>
                  4 36 6 9 -1.</_>
                <_>
                  6 36 2 9 3.</_></rects>
              <tilted>0</tilted></feature>
            <threshold>-0.0141095798462629</threshold>
            <left_val>0.4743612110614777</left_val>
            <right_val>-0.1292915940284729</right_val></_></_>
        <_>
          <_>
            <feature>
              <rects>
                <_>
                  8 34 2 8 -1.</_>
                <_>
                  6 36 2 4 2.</_></rects>
              <tilted>1</tilted></feature>
            <threshold>-3.9207828231155872e-003</threshold>
            <left_val>0.1617894023656845</left_val>
            <right_val>-0.0864661112427711</right_val></_></_>
        <_>
          <_>
            <feature>
              <rects>
                <_>
                  0 33 12 10 -1.</_>
                <_>
                  4 33 4 10 3.</_></rects>
              <tilted>0</tilted></feature>
            <threshold>0.0165658406913280</threshold>
            <left_val>-0.1609766930341721</left_val>
            <right_val>0.4428265988826752</right_val></_></_>
        <_>
          <_>
            <feature>
              <rects>
                <_>
                  0 42 16 6 -1.</_>
                <_>
                  4 42 8 6 2.</_></rects>
              <tilted>0</tilted></feature>
            <threshold>-4.1636708192527294e-003</threshold>
            <left_val>0.2099435031414032</left_val>
            <right_val>-0.3361592888832092</right_val></_></_>
        <_>
          <_>
            <feature>
              <rects>
                <_>
                  1 31 6 16 -1.</_>
                <_>
                  1 31 3 8 2.</_>
                <_>
                  4 39 3 8 2.</_></rects>
              <tilted>0</tilted></feature>
            <threshold>0.0110685098916292</threshold>
            <left_val>-0.1540122032165527</left_val>
            <right_val>0.4525234103202820</right_val></_></_>
        <_>
          <_>
            <feature>
              <rects>
                <_>
                  8 9 8 4 -1.</_>
                <_>
                  8 11 8 2 2.</_></rects>
              <tilted>0</tilted></feature>
            <threshold>-5.3621519327862188e-005</threshold>
            <left_val>0.1595976054668427</left_val>
            <right_val>-0.2980638146400452</right_val></_></_>
        <_>
          <_>
            <feature>
              <rects>
                <_>
                  5 3 6 10 -1.</_>
                <_>
                  5 3 3 5 2.</_>
                <_>
                  8 8 3 5 2.</_></rects>
              <tilted>0</tilted></feature>
            <threshold>9.8004611209034920e-003</threshold>
            <left_val>-0.1370916962623596</left_val>
            <right_val>0.4814465939998627</right_val></_></_>
        <_>
          <_>
            <feature>
              <rects>
                <_>
                  5 4 6 6 -1.</_>
                <_>
                  8 4 3 3 2.</_>
                <_>
                  5 7 3 3 2.</_></rects>
              <tilted>0</tilted></feature>
            <threshold>1.6600999515503645e-004</threshold>
            <left_val>-0.3162952959537506</left_val>
            <right_val>0.2670629918575287</right_val></_></_>
        <_>
          <_>
            <feature>
              <rects>
                <_>
                  5 4 6 6 -1.</_>
                <_>
                  5 4 3 3 2.</_>
                <_>
                  8 7 3 3 2.</_></rects>
              <tilted>0</tilted></feature>
            <threshold>5.9525959659367800e-004</threshold>
            <left_val>-0.3388966917991638</left_val>
            <right_val>0.3305194973945618</right_val></_></_>
        <_>
          <_>
            <feature>
              <rects>
                <_>
                  5 4 6 6 -1.</_>
                <_>
                  8 4 3 3 2.</_>
                <_>
                  5 7 3 3 2.</_></rects>
              <tilted>0</tilted></feature>
            <threshold>1.3399479939835146e-005</threshold>
            <left_val>-0.4257065057754517</left_val>
            <right_val>0.3341051936149597</right_val></_></_>
        <_>
          <_>
            <feature>
              <rects>
                <_>
                  5 4 6 6 -1.</_>
                <_>
                  5 4 3 3 2.</_>
                <_>
                  8 7 3 3 2.</_></rects>
              <tilted>0</tilted></feature>
            <threshold>1.5572670235997066e-005</threshold>
            <left_val>-0.5092201828956604</left_val>
            <right_val>0.4371900856494904</right_val></_></_>
        <_>
          <_>
            <feature>
              <rects>
                <_>
                  5 4 6 6 -1.</_>
                <_>
                  8 4 3 3 2.</_>
                <_>
                  5 7 3 3 2.</_></rects>
              <tilted>0</tilted></feature>
            <threshold>1.3399479939835146e-005</threshold>
            <left_val>-0.6286236047744751</left_val>
            <right_val>0.4903785884380341</right_val></_></_>
        <_>
          <_>
            <feature>
              <rects>
                <_>
                  5 4 6 6 -1.</_>
                <_>
                  5 4 3 3 2.</_>
                <_>
                  8 7 3 3 2.</_></rects>
              <tilted>0</tilted></feature>
            <threshold>1.5572670235997066e-005</threshold>
            <left_val>-0.7341210842132568</left_val>
            <right_val>0.5964013934135437</right_val></_></_>
        <_>
          <_>
            <feature>
              <rects>
                <_>
                  5 4 6 6 -1.</_>
                <_>
                  8 4 3 3 2.</_>
                <_>
                  5 7 3 3 2.</_></rects>
              <tilted>0</tilted></feature>
            <threshold>1.3399479939835146e-005</threshold>
            <left_val>-0.8403679728507996</left_val>
            <right_val>0.6779047250747681</right_val></_></_>
        <_>
          <_>
            <feature>
              <rects>
                <_>
                  5 4 6 6 -1.</_>
                <_>
                  5 4 3 3 2.</_>
                <_>
                  8 7 3 3 2.</_></rects>
              <tilted>0</tilted></feature>
            <threshold>1.5572670235997066e-005</threshold>
            <left_val>-0.9146314859390259</left_val>
            <right_val>0.7813805937767029</right_val></_></_>
        <_>
          <_>
            <feature>
              <rects>
                <_>
                  5 3 6 8 -1.</_>
                <_>
                  8 3 3 4 2.</_>
                <_>
                  5 7 3 4 2.</_></rects>
              <tilted>0</tilted></feature>
            <threshold>1.7912270777742378e-005</threshold>
            <left_val>-0.9697282910346985</left_val>
            <right_val>0.8768528103828430</right_val></_></_>
        <_>
          <_>
            <feature>
              <rects>
                <_>
                  5 3 6 8 -1.</_>
                <_>
                  5 3 3 4 2.</_>
                <_>
                  8 7 3 4 2.</_></rects>
              <tilted>0</tilted></feature>
            <threshold>7.0268310082610697e-005</threshold>
            <left_val>-0.9974480271339417</left_val>
            <right_val>0.9999877214431763</right_val></_></_>
        <_>
          <_>
            <feature>
              <rects>
                <_>
                  14 0 2 1 -1.</_>
                <_>
                  14 0 1 1 2.</_></rects>
              <tilted>0</tilted></feature>
            <threshold>0.</threshold>
            <left_val>0.</left_val>
            <right_val>-1.</right_val></_></_>
        <_>
          <_>
            <feature>
              <rects>
                <_>
                  4 4 8 6 -1.</_>
                <_>
                  4 4 4 3 2.</_>
                <_>
                  8 7 4 3 2.</_></rects>
              <tilted>0</tilted></feature>
            <threshold>-1.6250129556283355e-004</threshold>
            <left_val>0.9965897202491760</left_val>
            <right_val>-0.9802541732788086</right_val></_></_>
        <_>
          <_>
            <feature>
              <rects>
                <_>
                  4 4 8 6 -1.</_>
                <_>
                  8 4 4 3 2.</_>
                <_>
                  4 7 4 3 2.</_></rects>
              <tilted>0</tilted></feature>
            <threshold>-1.7483140254626051e-005</threshold>
            <left_val>0.9933089017868042</left_val>
            <right_val>-0.9059516191482544</right_val></_></_>
        <_>
          <_>
            <feature>
              <rects>
                <_>
                  5 4 6 6 -1.</_>
                <_>
                  5 4 3 3 2.</_>
                <_>
                  8 7 3 3 2.</_></rects>
              <tilted>0</tilted></feature>
            <threshold>-1.3399479939835146e-005</threshold>
            <left_val>0.9709064960479736</left_val>
            <right_val>-0.7266194224357605</right_val></_></_>
        <_>
          <_>
            <feature>
              <rects>
                <_>
                  6 3 9 22 -1.</_>
                <_>
                  6 14 9 11 2.</_></rects>
              <tilted>0</tilted></feature>
            <threshold>-6.7685832618735731e-005</threshold>
            <left_val>0.8140792846679688</left_val>
            <right_val>-0.5134212970733643</right_val></_></_>
        <_>
          <_>
            <feature>
              <rects>
                <_>
                  2 4 12 39 -1.</_>
                <_>
                  2 17 12 13 3.</_></rects>
              <tilted>0</tilted></feature>
            <threshold>7.9257901234086603e-005</threshold>
            <left_val>-0.4172433912754059</left_val>
            <right_val>0.8649780750274658</right_val></_></_>
        <_>
          <_>
            <feature>
              <rects>
                <_>
                  9 1 5 42 -1.</_>
                <_>
                  9 15 5 14 3.</_></rects>
              <tilted>0</tilted></feature>
            <threshold>-2.8750291094183922e-003</threshold>
            <left_val>0.5419909954071045</left_val>
            <right_val>-0.6611217856407166</right_val></_></_>
        <_>
          <_>
            <feature>
              <rects>
                <_>
                  6 13 7 4 -1.</_>
                <_>
                  6 13 7 2 2.</_></rects>
              <tilted>1</tilted></feature>
            <threshold>1.1788280062319245e-005</threshold>
            <left_val>-0.5991696715354919</left_val>
            <right_val>0.6879057288169861</right_val></_></_>
        <_>
          <_>
            <feature>
              <rects>
                <_>
                  5 4 6 6 -1.</_>
                <_>
                  8 4 3 3 2.</_>
                <_>
                  5 7 3 3 2.</_></rects>
              <tilted>0</tilted></feature>
            <threshold>-1.5572670235997066e-005</threshold>
            <left_val>0.6427491903305054</left_val>
            <right_val>-0.7455148100852966</right_val></_></_>
        <_>
          <_>
            <feature>
              <rects>
                <_>
                  5 3 6 8 -1.</_>
                <_>
                  5 3 3 4 2.</_>
                <_>
                  8 7 3 4 2.</_></rects>
              <tilted>0</tilted></feature>
            <threshold>-1.7912270777742378e-005</threshold>
            <left_val>0.7029585838317871</left_val>
            <right_val>-0.5695722103118897</right_val></_></_>
        <_>
          <_>
            <feature>
              <rects>
                <_>
                  1 3 14 22 -1.</_>
                <_>
                  1 14 14 11 2.</_></rects>
              <tilted>0</tilted></feature>
            <threshold>1.4673159457743168e-003</threshold>
            <left_val>-0.3163770139217377</left_val>
            <right_val>0.8193470239639282</right_val></_></_>
        <_>
          <_>
            <feature>
              <rects>
                <_>
                  0 10 9 6 -1.</_>
                <_>
                  0 13 9 3 2.</_></rects>
              <tilted>0</tilted></feature>
            <threshold>-3.3656138839432970e-005</threshold>
            <left_val>0.5087472796440125</left_val>
            <right_val>-0.7335863113403320</right_val></_></_>
        <_>
          <_>
            <feature>
              <rects>
                <_>
                  7 10 9 6 -1.</_>
                <_>
                  7 13 9 3 2.</_></rects>
              <tilted>0</tilted></feature>
            <threshold>1.2287289428059012e-004</threshold>
            <left_val>-0.3139728903770447</left_val>
            <right_val>0.5314180254936218</right_val></_></_>
        <_>
          <_>
            <feature>
              <rects>
                <_>
                  6 13 7 4 -1.</_>
                <_>
                  6 13 7 2 2.</_></rects>
              <tilted>1</tilted></feature>
            <threshold>-1.4271249710873235e-005</threshold>
            <left_val>0.6348407268524170</left_val>
            <right_val>-0.5847262144088745</right_val></_></_>
        <_>
          <_>
            <feature>
              <rects>
                <_>
                  10 13 4 7 -1.</_>
                <_>
                  10 13 2 7 2.</_></rects>
              <tilted>1</tilted></feature>
            <threshold>-2.8655969799729064e-005</threshold>
            <left_val>0.3980186879634857</left_val>
            <right_val>-0.2485132068395615</right_val></_></_>
        <_>
          <_>
            <feature>
              <rects>
                <_>
                  6 14 4 10 -1.</_>
                <_>
                  6 19 4 5 2.</_></rects>
              <tilted>0</tilted></feature>
            <threshold>-1.7898209625855088e-004</threshold>
            <left_val>0.5771396160125732</left_val>
            <right_val>-0.5029293894767761</right_val></_></_>
        <_>
          <_>
            <feature>
              <rects>
                <_>
                  5 3 6 8 -1.</_>
                <_>
                  8 3 3 4 2.</_>
                <_>
                  5 7 3 4 2.</_></rects>
              <tilted>0</tilted></feature>
            <threshold>-1.6020569091779180e-005</threshold>
            <left_val>0.5072979927062988</left_val>
            <right_val>-0.3803746998310089</right_val></_></_>
        <_>
          <_>
            <feature>
              <rects>
                <_>
                  4 8 12 4 -1.</_>
                <_>
                  4 8 12 2 2.</_></rects>
              <tilted>1</tilted></feature>
            <threshold>-1.7047559595084749e-005</threshold>
            <left_val>0.4553247094154358</left_val>
            <right_val>-0.2582421004772186</right_val></_></_>
        <_>
          <_>
            <feature>
              <rects>
                <_>
                  12 9 4 20 -1.</_>
                <_>
                  14 9 2 10 2.</_>
                <_>
                  12 19 2 10 2.</_></rects>
              <tilted>0</tilted></feature>
            <threshold>-7.4096447788178921e-003</threshold>
            <left_val>0.3440906107425690</left_val>
            <right_val>-0.1330990046262741</right_val></_></_>
        <_>
          <_>
            <feature>
              <rects>
                <_>
                  0 9 4 20 -1.</_>
                <_>
                  0 9 2 10 2.</_>
                <_>
                  2 19 2 10 2.</_></rects>
              <tilted>0</tilted></feature>
            <threshold>-0.0159446392208338</threshold>
            <left_val>0.6238796114921570</left_val>
            <right_val>-0.1540745943784714</right_val></_></_>
        <_>
          <_>
            <feature>
              <rects>
                <_>
                  12 9 3 4 -1.</_>
                <_>
                  12 11 3 2 2.</_></rects>
              <tilted>0</tilted></feature>
            <threshold>0.0162506606429815</threshold>
            <left_val>0.0347901694476604</left_val>
            <right_val>-0.8788446187973023</right_val></_></_>
        <_>
          <_>
            <feature>
              <rects>
                <_>
                  0 14 8 4 -1.</_>
                <_>
                  0 15 8 2 2.</_></rects>
              <tilted>0</tilted></feature>
            <threshold>-4.2561572045087814e-003</threshold>
            <left_val>-0.5714591145515442</left_val>
            <right_val>0.1585370004177094</right_val></_></_>
        <_>
          <_>
            <feature>
              <rects>
                <_>
                  0 20 16 11 -1.</_>
                <_>
                  4 20 8 11 2.</_></rects>
              <tilted>0</tilted></feature>
            <threshold>0.0898088216781616</threshold>
            <left_val>-0.0920529663562775</left_val>
            <right_val>0.8051187992095947</right_val></_></_>
        <_>
          <_>
            <feature>
              <rects>
                <_>
                  0 9 6 4 -1.</_>
                <_>
                  0 11 6 2 2.</_></rects>
              <tilted>0</tilted></feature>
            <threshold>-3.5991819459013641e-004</threshold>
            <left_val>0.2463534027338028</left_val>
            <right_val>-0.3244217932224274</right_val></_></_>
        <_>
          <_>
            <feature>
              <rects>
                <_>
                  9 10 7 6 -1.</_>
                <_>
                  9 13 7 3 2.</_></rects>
              <tilted>0</tilted></feature>
            <threshold>-5.8231811271980405e-004</threshold>
            <left_val>0.1823994964361191</left_val>
            <right_val>-0.2632263004779816</right_val></_></_>
        <_>
          <_>
            <feature>
              <rects>
                <_>
                  0 10 9 6 -1.</_>
                <_>
                  0 13 9 3 2.</_></rects>
              <tilted>0</tilted></feature>
            <threshold>4.6817549446132034e-005</threshold>
            <left_val>-0.2150485962629318</left_val>
            <right_val>0.3960543870925903</right_val></_></_>
        <_>
          <_>
            <feature>
              <rects>
                <_>
                  7 11 4 6 -1.</_>
                <_>
                  7 14 4 3 2.</_></rects>
              <tilted>0</tilted></feature>
            <threshold>-2.0406799740158021e-004</threshold>
            <left_val>0.1532364040613174</left_val>
            <right_val>-0.2701523900032044</right_val></_></_>
        <_>
          <_>
            <feature>
              <rects>
                <_>
                  8 1 7 4 -1.</_>
                <_>
                  7 2 7 2 2.</_></rects>
              <tilted>1</tilted></feature>
            <threshold>-9.5021678134799004e-003</threshold>
            <left_val>0.5331482887268066</left_val>
            <right_val>-0.1343165934085846</right_val></_></_>
        <_>
          <_>
            <feature>
              <rects>
                <_>
                  8 7 3 1 -1.</_>
                <_>
                  9 7 1 1 3.</_></rects>
              <tilted>0</tilted></feature>
            <threshold>-3.9432611083611846e-004</threshold>
            <left_val>0.2498670071363449</left_val>
            <right_val>-0.0967287197709084</right_val></_></_>
        <_>
          <_>
            <feature>
              <rects>
                <_>
                  6 10 9 4 -1.</_>
                <_>
                  6 10 9 2 2.</_></rects>
              <tilted>1</tilted></feature>
            <threshold>4.3846099288202822e-004</threshold>
            <left_val>-0.2774227857589722</left_val>
            <right_val>0.2120127975940704</right_val></_></_>
        <_>
          <_>
            <feature>
              <rects>
                <_>
                  8 7 3 1 -1.</_>
                <_>
                  9 7 1 1 3.</_></rects>
              <tilted>0</tilted></feature>
            <threshold>1.0551210289122537e-004</threshold>
            <left_val>-0.1448148936033249</left_val>
            <right_val>0.1431972980499268</right_val></_></_>
        <_>
          <_>
            <feature>
              <rects>
                <_>
                  5 7 3 1 -1.</_>
                <_>
                  6 7 1 1 3.</_></rects>
              <tilted>0</tilted></feature>
            <threshold>-5.8809877373278141e-004</threshold>
            <left_val>0.4304282069206238</left_val>
            <right_val>-0.1524388939142227</right_val></_></_>
        <_>
          <_>
            <feature>
              <rects>
                <_>
                  3 5 10 16 -1.</_>
                <_>
                  3 9 10 8 2.</_></rects>
              <tilted>0</tilted></feature>
            <threshold>-0.0135225504636765</threshold>
            <left_val>0.3185150027275085</left_val>
            <right_val>-0.1825197041034699</right_val></_></_>
        <_>
          <_>
            <feature>
              <rects>
                <_>
                  0 4 16 12 -1.</_>
                <_>
                  0 10 16 6 2.</_></rects>
              <tilted>0</tilted></feature>
            <threshold>5.4620287846773863e-004</threshold>
            <left_val>-0.1895935982465744</left_val>
            <right_val>0.3550457060337067</right_val></_></_>
        <_>
          <_>
            <feature>
              <rects>
                <_>
                  9 4 4 9 -1.</_>
                <_>
                  6 7 4 3 3.</_></rects>
              <tilted>1</tilted></feature>
            <threshold>-0.0313287489116192</threshold>
            <left_val>0.1722040027379990</left_val>
            <right_val>-0.0782282277941704</right_val></_></_>
        <_>
          <_>
            <feature>
              <rects>
                <_>
                  2 4 4 40 -1.</_>
                <_>
                  2 4 2 20 2.</_>
                <_>
                  4 24 2 20 2.</_></rects>
              <tilted>0</tilted></feature>
            <threshold>-0.0229385104030371</threshold>
            <left_val>0.4305891096591950</left_val>
            <right_val>-0.1309020966291428</right_val></_></_>
        <_>
          <_>
            <feature>
              <rects>
                <_>
                  6 3 10 32 -1.</_>
                <_>
                  11 3 5 16 2.</_>
                <_>
                  6 19 5 16 2.</_></rects>
              <tilted>0</tilted></feature>
            <threshold>0.0227254591882229</threshold>
            <left_val>-0.0864854902029037</left_val>
            <right_val>0.2094289958477020</right_val></_></_>
        <_>
          <_>
            <feature>
              <rects>
                <_>
                  5 2 3 40 -1.</_>
                <_>
                  5 12 3 20 2.</_></rects>
              <tilted>0</tilted></feature>
            <threshold>-0.0118202399462461</threshold>
            <left_val>0.2088019996881485</left_val>
            <right_val>-0.2934005856513977</right_val></_></_>
        <_>
          <_>
            <feature>
              <rects>
                <_>
                  10 4 6 16 -1.</_>
                <_>
                  13 4 3 8 2.</_>
                <_>
                  10 12 3 8 2.</_></rects>
              <tilted>0</tilted></feature>
            <threshold>-0.0100017897784710</threshold>
            <left_val>0.2860513925552368</left_val>
            <right_val>-0.1411682963371277</right_val></_></_>
        <_>
          <_>
            <feature>
              <rects>
                <_>
                  5 3 6 33 -1.</_>
                <_>
                  5 14 6 11 3.</_></rects>
              <tilted>0</tilted></feature>
            <threshold>0.0274277701973915</threshold>
            <left_val>-0.1651031970977783</left_val>
            <right_val>0.4086579084396362</right_val></_></_>
        <_>
          <_>
            <feature>
              <rects>
                <_>
                  2 3 12 28 -1.</_>
                <_>
                  2 10 12 14 2.</_></rects>
              <tilted>0</tilted></feature>
            <threshold>-0.0142077300697565</threshold>
            <left_val>0.2003823965787888</left_val>
            <right_val>-0.2984522879123688</right_val></_></_>
        <_>
          <_>
            <feature>
              <rects>
                <_>
                  8 7 8 2 -1.</_>
                <_>
                  8 7 8 1 2.</_></rects>
              <tilted>1</tilted></feature>
            <threshold>-8.0361939035356045e-004</threshold>
            <left_val>0.3676615059375763</left_val>
            <right_val>-0.1770550012588501</right_val></_></_>
        <_>
          <_>
            <feature>
              <rects>
                <_>
                  8 35 1 8 -1.</_>
                <_>
                  6 37 1 4 2.</_></rects>
              <tilted>1</tilted></feature>
            <threshold>2.8316650423221290e-004</threshold>
            <left_val>-0.0799890607595444</left_val>
            <right_val>0.1217632964253426</right_val></_></_>
        <_>
          <_>
            <feature>
              <rects>
                <_>
                  8 35 8 1 -1.</_>
                <_>
                  10 37 4 1 2.</_></rects>
              <tilted>1</tilted></feature>
            <threshold>-3.6484568845480680e-003</threshold>
            <left_val>0.3633849918842316</left_val>
            <right_val>-0.1691268980503082</right_val></_></_>
        <_>
          <_>
            <feature>
              <rects>
                <_>
                  9 15 1 3 -1.</_>
                <_>
                  9 16 1 1 3.</_></rects>
              <tilted>0</tilted></feature>
            <threshold>3.1806199694983661e-004</threshold>
            <left_val>0.0707198530435562</left_val>
            <right_val>-0.2470963001251221</right_val></_></_>
        <_>
          <_>
            <feature>
              <rects>
                <_>
                  0 5 6 14 -1.</_>
                <_>
                  0 5 3 7 2.</_>
                <_>
                  3 12 3 7 2.</_></rects>
              <tilted>0</tilted></feature>
            <threshold>0.0149433603510261</threshold>
            <left_val>-0.0965514183044434</left_val>
            <right_val>0.4474051892757416</right_val></_></_>
        <_>
          <_>
            <feature>
              <rects>
                <_>
                  10 28 5 8 -1.</_>
                <_>
                  8 30 5 4 2.</_></rects>
              <tilted>1</tilted></feature>
            <threshold>-8.4792968118563294e-004</threshold>
            <left_val>0.0865999907255173</left_val>
            <right_val>-0.1503998041152954</right_val></_></_>
        <_>
          <_>
            <feature>
              <rects>
                <_>
                  5 31 4 2 -1.</_>
                <_>
                  5 31 4 1 2.</_></rects>
              <tilted>1</tilted></feature>
            <threshold>2.5235809152945876e-004</threshold>
            <left_val>-0.1842426061630249</left_val>
            <right_val>0.3275817930698395</right_val></_></_>
        <_>
          <_>
            <feature>
              <rects>
                <_>
                  2 9 12 21 -1.</_>
                <_>
                  6 9 4 21 3.</_></rects>
              <tilted>0</tilted></feature>
            <threshold>-0.0301888491958380</threshold>
            <left_val>0.2603419125080109</left_val>
            <right_val>-0.2334214001893997</right_val></_></_>
        <_>
          <_>
            <feature>
              <rects>
                <_>
                  5 25 2 12 -1.</_>
                <_>
                  5 25 1 6 2.</_>
                <_>
                  6 31 1 6 2.</_></rects>
              <tilted>0</tilted></feature>
            <threshold>-4.1512841562507674e-005</threshold>
            <left_val>0.2542996108531952</left_val>
            <right_val>-0.2130572050809860</right_val></_></_>
        <_>
          <_>
            <feature>
              <rects>
                <_>
                  10 21 6 24 -1.</_>
                <_>
                  13 21 3 12 2.</_>
                <_>
                  10 33 3 12 2.</_></rects>
              <tilted>0</tilted></feature>
            <threshold>-0.0117985596880317</threshold>
            <left_val>0.2370045036077499</left_val>
            <right_val>-0.1247138977050781</right_val></_></_>
        <_>
          <_>
            <feature>
              <rects>
                <_>
                  3 15 5 3 -1.</_>
                <_>
                  3 16 5 1 3.</_></rects>
              <tilted>0</tilted></feature>
            <threshold>1.6501980135217309e-003</threshold>
            <left_val>0.1071960031986237</left_val>
            <right_val>-0.4883733987808228</right_val></_></_>
        <_>
          <_>
            <feature>
              <rects>
                <_>
                  13 47 2 1 -1.</_>
                <_>
                  13 47 1 1 2.</_></rects>
              <tilted>0</tilted></feature>
            <threshold>3.4920210600830615e-004</threshold>
            <left_val>0.0741695165634155</left_val>
            <right_val>-0.2886300086975098</right_val></_></_>
        <_>
          <_>
            <feature>
              <rects>
                <_>
                  1 47 2 1 -1.</_>
                <_>
                  2 47 1 1 2.</_></rects>
              <tilted>0</tilted></feature>
            <threshold>5.2629620768129826e-004</threshold>
            <left_val>0.1067105010151863</left_val>
            <right_val>-0.5761979222297669</right_val></_></_>
        <_>
          <_>
            <feature>
              <rects>
                <_>
                  7 23 3 3 -1.</_>
                <_>
                  8 24 1 1 9.</_></rects>
              <tilted>0</tilted></feature>
            <threshold>-0.0102113597095013</threshold>
            <left_val>-0.6552376747131348</left_val>
            <right_val>0.0224339906126261</right_val></_></_>
        <_>
          <_>
            <feature>
              <rects>
                <_>
                  6 23 3 3 -1.</_>
                <_>
                  7 24 1 1 9.</_></rects>
              <tilted>0</tilted></feature>
            <threshold>-1.7647739732638001e-003</threshold>
            <left_val>-0.3810848891735077</left_val>
            <right_val>0.1483826041221619</right_val></_></_>
        <_>
          <_>
            <feature>
              <rects>
                <_>
                  2 36 12 2 -1.</_>
                <_>
                  8 36 6 1 2.</_>
                <_>
                  2 37 6 1 2.</_></rects>
              <tilted>0</tilted></feature>
            <threshold>2.1113110706210136e-003</threshold>
            <left_val>0.0963127464056015</left_val>
            <right_val>-0.4828956127166748</right_val></_></_>
        <_>
          <_>
            <feature>
              <rects>
                <_>
                  2 36 12 2 -1.</_>
                <_>
                  2 36 6 1 2.</_>
                <_>
                  8 37 6 1 2.</_></rects>
              <tilted>0</tilted></feature>
            <threshold>1.3501499779522419e-003</threshold>
            <left_val>0.1365188956260681</left_val>
            <right_val>-0.3405571877956390</right_val></_></_>
        <_>
          <_>
            <feature>
              <rects>
                <_>
                  12 16 4 30 -1.</_>
                <_>
                  14 16 2 15 2.</_>
                <_>
                  12 31 2 15 2.</_></rects>
              <tilted>0</tilted></feature>
            <threshold>-0.0265899598598480</threshold>
            <left_val>0.4439555108547211</left_val>
            <right_val>-0.0811828225851059</right_val></_></_>
        <_>
          <_>
            <feature>
              <rects>
                <_>
                  3 24 8 22 -1.</_>
                <_>
                  3 24 4 11 2.</_>
                <_>
                  7 35 4 11 2.</_></rects>
              <tilted>0</tilted></feature>
            <threshold>0.0488359108567238</threshold>
            <left_val>-0.0662429109215736</left_val>
            <right_val>0.6234021782875061</right_val></_></_>
        <_>
          <_>
            <feature>
              <rects>
                <_>
                  8 47 8 1 -1.</_>
                <_>
                  10 47 4 1 2.</_></rects>
              <tilted>0</tilted></feature>
            <threshold>-8.1005301326513290e-003</threshold>
            <left_val>-0.8782929778099060</left_val>
            <right_val>0.0255001597106457</right_val></_></_>
        <_>
          <_>
            <feature>
              <rects>
                <_>
                  0 47 8 1 -1.</_>
                <_>
                  2 47 4 1 2.</_></rects>
              <tilted>0</tilted></feature>
            <threshold>-3.6984039470553398e-003</threshold>
            <left_val>-0.5408642292022705</left_val>
            <right_val>0.0774186626076698</right_val></_></_>
        <_>
          <_>
            <feature>
              <rects>
                <_>
                  12 16 4 30 -1.</_>
                <_>
                  14 16 2 15 2.</_>
                <_>
                  12 31 2 15 2.</_></rects>
              <tilted>0</tilted></feature>
            <threshold>0.0303255002945662</threshold>
            <left_val>-0.0598960109055042</left_val>
            <right_val>0.4095205962657929</right_val></_></_>
        <_>
          <_>
            <feature>
              <rects>
                <_>
                  0 16 4 30 -1.</_>
                <_>
                  0 16 2 15 2.</_>
                <_>
                  2 31 2 15 2.</_></rects>
              <tilted>0</tilted></feature>
            <threshold>-0.0235496591776609</threshold>
            <left_val>0.5028051137924194</left_val>
            <right_val>-0.0988942235708237</right_val></_></_>
        <_>
          <_>
            <feature>
              <rects>
                <_>
                  12 17 4 16 -1.</_>
                <_>
                  14 17 2 8 2.</_>
                <_>
                  12 25 2 8 2.</_></rects>
              <tilted>0</tilted></feature>
            <threshold>0.0160700008273125</threshold>
            <left_val>-0.0470948405563831</left_val>
            <right_val>0.3922257125377655</right_val></_></_>
        <_>
          <_>
            <feature>
              <rects>
                <_>
                  8 4 4 8 -1.</_>
                <_>
                  9 5 2 8 2.</_></rects>
              <tilted>1</tilted></feature>
            <threshold>3.5077501088380814e-003</threshold>
            <left_val>-0.1601524949073792</left_val>
            <right_val>0.2846901118755341</right_val></_></_>
        <_>
          <_>
            <feature>
              <rects>
                <_>
                  10 15 6 12 -1.</_>
                <_>
                  12 15 2 12 3.</_></rects>
              <tilted>0</tilted></feature>
            <threshold>0.0149035798385739</threshold>
            <left_val>-0.0736748427152634</left_val>
            <right_val>0.1727671027183533</right_val></_></_>
        <_>
          <_>
            <feature>
              <rects>
                <_>
                  0 17 6 10 -1.</_>
                <_>
                  2 17 2 10 3.</_></rects>
              <tilted>0</tilted></feature>
            <threshold>-1.6829579835757613e-003</threshold>
            <left_val>0.2367430031299591</left_val>
            <right_val>-0.1987431943416596</right_val></_></_>
        <_>
          <_>
            <feature>
              <rects>
                <_>
                  7 39 6 4 -1.</_>
                <_>
                  9 39 2 4 3.</_></rects>
              <tilted>0</tilted></feature>
            <threshold>0.0107774902135134</threshold>
            <left_val>-0.0537234917283058</left_val>
            <right_val>0.5628249049186707</right_val></_></_>
        <_>
          <_>
            <feature>
              <rects>
                <_>
                  6 3 1 3 -1.</_>
                <_>
                  5 4 1 1 3.</_></rects>
              <tilted>1</tilted></feature>
            <threshold>-1.3818539446219802e-004</threshold>
            <left_val>0.2289849072694778</left_val>
            <right_val>-0.2350741028785706</right_val></_></_>
        <_>
          <_>
            <feature>
              <rects>
                <_>
                  9 6 2 6 -1.</_>
                <_>
                  10 6 1 3 2.</_>
                <_>
                  9 9 1 3 2.</_></rects>
              <tilted>0</tilted></feature>
            <threshold>1.1278199963271618e-003</threshold>
            <left_val>-0.0640947967767715</left_val>
            <right_val>0.1943251043558121</right_val></_></_>
        <_>
          <_>
            <feature>
              <rects>
                <_>
                  5 6 2 6 -1.</_>
                <_>
                  5 6 1 3 2.</_>
                <_>
                  6 9 1 3 2.</_></rects>
              <tilted>0</tilted></feature>
            <threshold>2.0618770213332027e-004</threshold>
            <left_val>-0.1941829025745392</left_val>
            <right_val>0.2725406885147095</right_val></_></_>
        <_>
          <_>
            <feature>
              <rects>
                <_>
                  6 8 4 2 -1.</_>
                <_>
                  6 9 4 1 2.</_></rects>
              <tilted>0</tilted></feature>
            <threshold>-5.6143901019822806e-005</threshold>
            <left_val>0.2248951941728592</left_val>
            <right_val>-0.2917439043521881</right_val></_></_>
        <_>
          <_>
            <feature>
              <rects>
                <_>
                  4 5 6 6 -1.</_>
                <_>
                  4 7 6 2 3.</_></rects>
              <tilted>0</tilted></feature>
            <threshold>-1.6121100634336472e-004</threshold>
            <left_val>0.2431318014860153</left_val>
            <right_val>-0.2232740074396133</right_val></_></_>
        <_>
          <_>
            <feature>
              <rects>
                <_>
                  6 3 10 6 -1.</_>
                <_>
                  11 3 5 3 2.</_>
                <_>
                  6 6 5 3 2.</_></rects>
              <tilted>0</tilted></feature>
            <threshold>2.8774789534509182e-003</threshold>
            <left_val>-0.1350039988756180</left_val>
            <right_val>0.2457184940576553</right_val></_></_>
        <_>
          <_>
            <feature>
              <rects>
                <_>
                  3 4 6 42 -1.</_>
                <_>
                  5 18 2 14 9.</_></rects>
              <tilted>0</tilted></feature>
            <threshold>-0.0153534803539515</threshold>
            <left_val>0.1610925048589706</left_val>
            <right_val>-0.3181028962135315</right_val></_></_>
        <_>
          <_>
            <feature>
              <rects>
                <_>
                  9 36 3 11 -1.</_>
                <_>
                  10 36 1 11 3.</_></rects>
              <tilted>0</tilted></feature>
            <threshold>-3.8184451113920659e-005</threshold>
            <left_val>0.1376045048236847</left_val>
            <right_val>-0.1346105933189392</right_val></_></_>
        <_>
          <_>
            <feature>
              <rects>
                <_>
                  4 4 8 39 -1.</_>
                <_>
                  4 17 8 13 3.</_></rects>
              <tilted>0</tilted></feature>
            <threshold>0.1534838974475861</threshold>
            <left_val>-0.0805423036217690</left_val>
            <right_val>0.5936055183410645</right_val></_></_></trees>
      <stage_threshold>-1.7023619413375854</stage_threshold>
      <parent>2</parent>
      <next>-1</next></_>
    <_>
      <trees>
        <_>
          <_>
            <feature>
              <rects>
                <_>
                  0 26 16 20 -1.</_>
                <_>
                  4 26 8 20 2.</_></rects>
              <tilted>0</tilted></feature>
            <threshold>-0.1798263043165207</threshold>
            <left_val>0.6433292031288147</left_val>
            <right_val>-0.2541371881961823</right_val></_></_>
        <_>
          <_>
            <feature>
              <rects>
                <_>
                  3 6 10 40 -1.</_>
                <_>
                  3 16 10 20 2.</_></rects>
              <tilted>0</tilted></feature>
            <threshold>-0.0475908815860748</threshold>
            <left_val>0.2281295955181122</left_val>
            <right_val>-0.2607846856117249</right_val></_></_>
        <_>
          <_>
            <feature>
              <rects>
                <_>
                  5 15 6 3 -1.</_>
                <_>
                  5 16 6 1 3.</_></rects>
              <tilted>0</tilted></feature>
            <threshold>-1.4618650311604142e-003</threshold>
            <left_val>-0.3745219111442566</left_val>
            <right_val>0.1064471006393433</right_val></_></_>
        <_>
          <_>
            <feature>
              <rects>
                <_>
                  13 5 2 12 -1.</_>
                <_>
                  14 5 1 6 2.</_>
                <_>
                  13 11 1 6 2.</_></rects>
              <tilted>0</tilted></feature>
            <threshold>-6.2588169239461422e-003</threshold>
            <left_val>0.2942422032356262</left_val>
            <right_val>-0.0414967015385628</right_val></_></_>
        <_>
          <_>
            <feature>
              <rects>
                <_>
                  5 2 4 2 -1.</_>
                <_>
                  5 3 4 1 2.</_></rects>
              <tilted>0</tilted></feature>
            <threshold>-9.8091375548392534e-004</threshold>
            <left_val>0.2417453974485397</left_val>
            <right_val>-0.1317119002342224</right_val></_></_>
        <_>
          <_>
            <feature>
              <rects>
                <_>
                  0 0 16 4 -1.</_>
                <_>
                  0 1 16 2 2.</_></rects>
              <tilted>0</tilted></feature>
            <threshold>-5.1720328629016876e-003</threshold>
            <left_val>0.3117907047271729</left_val>
            <right_val>-0.1210639998316765</right_val></_></_>
        <_>
          <_>
            <feature>
              <rects>
                <_>
                  5 39 6 5 -1.</_>
                <_>
                  7 39 2 5 3.</_></rects>
              <tilted>0</tilted></feature>
            <threshold>9.9141076207160950e-003</threshold>
            <left_val>-0.0930662974715233</left_val>
            <right_val>0.3435541093349457</right_val></_></_>
        <_>
          <_>
            <feature>
              <rects>
                <_>
                  8 45 2 1 -1.</_>
                <_>
                  8 45 1 1 2.</_></rects>
              <tilted>1</tilted></feature>
            <threshold>-3.7972468999214470e-004</threshold>
            <left_val>0.1943356990814209</left_val>
            <right_val>-0.0883697569370270</right_val></_></_>
        <_>
          <_>
            <feature>
              <rects>
                <_>
                  6 0 4 36 -1.</_>
                <_>
                  6 9 4 18 2.</_></rects>
              <tilted>0</tilted></feature>
            <threshold>0.1240369006991386</threshold>
            <left_val>-0.0648255869746208</left_val>
            <right_val>0.5574532151222229</right_val></_></_>
        <_>
          <_>
            <feature>
              <rects>
                <_>
                  13 5 2 12 -1.</_>
                <_>
                  14 5 1 6 2.</_>
                <_>
                  13 11 1 6 2.</_></rects>
              <tilted>0</tilted></feature>
            <threshold>5.1920008845627308e-003</threshold>
            <left_val>-0.0319396294653416</left_val>
            <right_val>0.3206562101840973</right_val></_></_>
        <_>
          <_>
            <feature>
              <rects>
                <_>
                  1 5 2 12 -1.</_>
                <_>
                  1 5 1 6 2.</_>
                <_>
                  2 11 1 6 2.</_></rects>
              <tilted>0</tilted></feature>
            <threshold>-4.7112181782722473e-003</threshold>
            <left_val>0.4127564132213593</left_val>
            <right_val>-0.0689797326922417</right_val></_></_>
        <_>
          <_>
            <feature>
              <rects>
                <_>
                  15 0 1 6 -1.</_>
                <_>
                  15 2 1 2 3.</_></rects>
              <tilted>0</tilted></feature>
            <threshold>-3.3563340548425913e-003</threshold>
            <left_val>-0.3619923889636993</left_val>
            <right_val>0.0423516295850277</right_val></_></_>
        <_>
          <_>
            <feature>
              <rects>
                <_>
                  4 32 8 2 -1.</_>
                <_>
                  4 32 4 1 2.</_>
                <_>
                  8 33 4 1 2.</_></rects>
              <tilted>0</tilted></feature>
            <threshold>1.4942700508981943e-003</threshold>
            <left_val>0.0769536122679710</left_val>
            <right_val>-0.3616774976253510</right_val></_></_>
        <_>
          <_>
            <feature>
              <rects>
                <_>
                  10 15 2 2 -1.</_>
                <_>
                  10 16 2 1 2.</_></rects>
              <tilted>0</tilted></feature>
            <threshold>2.9004039242863655e-004</threshold>
            <left_val>0.0784471631050110</left_val>
            <right_val>-0.2504447996616364</right_val></_></_>
        <_>
          <_>
            <feature>
              <rects>
                <_>
                  3 39 6 5 -1.</_>
                <_>
                  5 39 2 5 3.</_></rects>
              <tilted>0</tilted></feature>
            <threshold>5.7588191702961922e-003</threshold>
            <left_val>-0.0923644378781319</left_val>
            <right_val>0.2789888083934784</right_val></_></_>
        <_>
          <_>
            <feature>
              <rects>
                <_>
                  9 39 4 5 -1.</_>
                <_>
                  9 39 2 5 2.</_></rects>
              <tilted>0</tilted></feature>
            <threshold>0.0110618099570274</threshold>
            <left_val>-0.0258249491453171</left_val>
            <right_val>0.2318135052919388</right_val></_></_>
        <_>
          <_>
            <feature>
              <rects>
                <_>
                  0 41 16 7 -1.</_>
                <_>
                  4 41 8 7 2.</_></rects>
              <tilted>0</tilted></feature>
            <threshold>-0.0113857295364141</threshold>
            <left_val>0.1603560000658035</left_val>
            <right_val>-0.1902620941400528</right_val></_></_>
        <_>
          <_>
            <feature>
              <rects>
                <_>
                  10 5 5 3 -1.</_>
                <_>
                  9 6 5 1 3.</_></rects>
              <tilted>1</tilted></feature>
            <threshold>7.7546150423586369e-003</threshold>
            <left_val>-0.0500506311655045</left_val>
            <right_val>0.2683047950267792</right_val></_></_>
        <_>
          <_>
            <feature>
              <rects>
                <_>
                  6 5 3 5 -1.</_>
                <_>
                  7 6 1 5 3.</_></rects>
              <tilted>1</tilted></feature>
            <threshold>-7.5142229907214642e-003</threshold>
            <left_val>0.3914464116096497</left_val>
            <right_val>-0.0621604211628437</right_val></_></_>
        <_>
          <_>
            <feature>
              <rects>
                <_>
                  4 15 8 32 -1.</_>
                <_>
                  4 31 8 16 2.</_></rects>
              <tilted>0</tilted></feature>
            <threshold>0.0623628981411457</threshold>
            <left_val>-0.1161590963602066</left_val>
            <right_val>0.2214335054159164</right_val></_></_>
        <_>
